rankdate,1,2,3,4,5,LS,cons,Date,Mkt-RF,SMB,HML,RMW,CMA,RF
1986-02,0.08237705514705883,0.08459200000000001,0.07378199264705881,0.06728649815498154,0.05378266911764706,-0.02859438602941177,0,198602,7.13,-0.71,-0.72,1.06,-1.2,0.53
1986-03,0.06660239655172413,0.04583562337662337,0.053437121212121214,0.045961341991342,0.03618230303030302,-0.03042009352142111,0,198603,4.88,-0.66,-0.39,1.21,0.92,0.6
1986-04,0.003439950413223141,0.002184904564315353,0.008221879668049792,0.0066286929460580915,-0.005236111570247935,-0.008676061983471076,0,198604,-1.31,2.84,-2.87,2.91,0.03,0.52
1986-05,0.034979105468749994,0.04588750196078432,0.048204667968750003,0.04343927450980392,0.02922112890625,-0.0057579765624999925,0,198605,4.62,-1.29,-0.21,2.13,1.08,0.49
1986-06,0.025432989090909096,0.0038869057971014503,0.006406527272727272,-0.008298155797101447,-0.038406836956521744,-0.06383982604743084,0,198606,1.03,-0.89,1.28,1.8,0.87,0.52
1986-07,-0.02662642268041237,-0.06761454295532646,-0.08218798969072165,-0.09345966323024055,-0.12085329553264605,-0.09422687285223369,0,198607,-6.45,-3.46,4.7,-0.54,0.84,0.52
1986-08,0.0531881180327869,0.04974336842105263,0.04424689802631578,0.036158125,0.03240282565789474,-0.020785292374892156,0,198608,6.07,-4.35,3.51,-1.66,3.21,0.46
1986-09,-0.07888721452145214,-0.08241467326732674,-0.06903269636963696,-0.06767182508250826,-0.05247221452145215,0.026414999999999994,0,198609,-8.6,2.05,3.22,-0.08,3.71,0.45
1986-10,0.05033511627906977,0.05981963122923588,0.052013438538205975,0.040511647840531566,0.028690611295681068,-0.021644504983388706,0,198610,4.66,-2.33,-1.42,-0.05,1.0,0.46
1986-11,0.012544643564356438,0.01366676821192053,0.008466115894039736,-0.0007765629139072848,-0.0005527019867549652,-0.013097345551111403,0,198611,1.17,-1.88,-0.07,1.09,0.67,0.39
1986-12,-0.021461478688524594,-0.02337918092105263,-0.020969701639344262,-0.03284361184210526,-0.03387140655737705,-0.012409927868852453,0,198612,-3.27,0.12,0.36,0.79,0.09,0.49
1987-01,0.10846926774193548,0.12059049190938512,0.13453732686084144,0.11835460517799352,0.13141212944983818,0.022942861707902704,0,198701,12.47,-1.54,-3.16,0.17,-1.0,0.42
1987-02,0.032598185667752445,0.0728528790849673,0.07799072222222223,0.07617671895424838,0.07319615359477123,0.04059796792701879,0,198702,4.39,3.4,-5.91,-0.76,-2.66,0.43
1987-03,0.005549473880597017,0.02476048880597015,0.011852498127340823,0.017678160447761198,0.04111034701492537,0.035560873134328354,0,198703,1.64,0.28,1.61,1.36,4.14,0.47
1987-04,-0.03621999290780142,-0.015487512455516014,-0.03081179432624113,-0.03567560854092527,-0.034983319148936175,0.0012366737588652421,0,198704,-2.11,-1.54,-0.39,-0.49,1.05,0.44
1987-05,0.0035401438127090307,-0.00307861744966443,-0.0029244697986577184,-0.0003809228187919477,0.015064204013377928,0.011524060200668897,0,198705,0.11,-0.56,0.23,0.51,1.14,0.38
1987-06,0.03976557957957958,0.041232018072289156,0.03648856456456456,0.026969981927710843,0.03144382282282283,-0.008321756756756754,0,198706,3.94,-2.21,1.04,1.7,0.84,0.48
1987-07,0.03728443063583815,0.045993344927536234,0.04256120869565218,0.029233823188405793,0.029173852173913047,-0.008110578461925106,0,198707,3.85,-1.14,0.68,-0.61,1.61,0.46
1987-08,0.03890805988023952,0.03967780780780781,0.04874940840840841,0.03157279279279279,0.013459792792792791,-0.02544826708744673,0,198708,3.52,-0.94,-0.93,2.04,-1.61,0.47
1987-09,-0.02063020972644377,-0.020994793313069908,-0.022712743902439027,-0.025946702127659572,-0.02270333130699088,-0.002073121580547111,0,198709,-2.59,0.38,0.27,-0.97,1.87,0.45
1987-10,-0.24808386227544907,-0.27918285885885885,-0.25059132132132134,-0.2963082604790419,-0.3286116586826347,-0.08052779640718563,0,198710,-23.24,-8.07,4.24,2.04,2.34,0.6
1987-11,-0.05939887610619468,-0.04982480177514793,-0.05356761538461539,-0.07839632544378697,-0.08244398816568048,-0.023045112059485798,0,198711,-7.77,2.85,2.95,-1.88,0.68,0.35
1987-12,0.0827115015015015,0.10817291891891892,0.10224021321321322,0.08803313213213212,0.018592171171171172,-0.06411933033033032,0,198712,6.81,0.06,-4.43,2.96,-2.42,0.39
1988-01,0.056054205882352943,0.020108377581120947,0.026131817109144546,0.04914034218289086,0.11041246764705882,0.05435826176470588,0,198801,4.21,-0.51,5.01,-1.14,2.13,0.29
1988-02,0.059540523391812865,0.07410843731778426,0.08719806705539358,0.09512215160349853,0.0918750350877193,0.03233451169590643,0,198802,4.75,3.32,-1.71,1.56,-0.01,0.46
1988-03,0.017132914965986394,0.004614017006802719,0.014912037414965986,0.03074992857142857,0.045104544217687066,0.027971629251700672,0,198803,-2.27,6.25,0.73,-0.25,1.8,0.44
1988-04,0.009715418060200667,0.014209906354515047,0.008182218120805369,0.0026220836120401337,0.012558879598662209,0.0028434615384615412,0,198804,0.56,1.16,1.67,-0.2,1.92,0.46
1988-05,-0.022829569579288028,-0.009598961165048542,-0.009694928802588999,-0.018893284789644013,-0.030370851132686085,-0.007541281553398057,0,198805,-0.29,-2.56,2.42,-0.74,0.33,0.51
1988-06,0.06956213623188406,0.07147425507246377,0.06266177391304349,0.08440414782608695,0.05449925507246376,-0.015062881159420304,0,198806,4.79,2.16,-1.24,1.47,-3.37,0.49
1988-07,-0.008390116666666668,-0.02232192757660167,-0.0210616,-0.009671142061281337,-0.001859058333333335,0.0065310583333333325,0,198807,-1.25,-0.21,2.22,-0.58,1.52,0.51
1988-08,-0.02750491755319149,-0.03401687466666667,-0.022572314666666666,-0.021080269333333335,-0.03198895212765958,-0.004484034574468089,0,198808,-3.31,-0.03,2.15,-0.82,1.76,0.59
1988-09,0.042461024128686325,0.03831734408602151,0.025789,0.031078336021505375,0.009941568364611261,-0.03251945576407506,0,198809,3.3,-1.36,-0.75,1.76,-0.61,0.62
1988-10,0.006030567282321899,0.0008253245382585755,8.17724867724944e-06,-0.01175085751978892,-0.0284497308707124,-0.0344802981530343,0,198810,1.15,-2.95,2.05,1.3,1.03,0.61
1988-11,-0.023280225388601035,-0.028096698701298703,-0.02939623056994819,-0.03779652987012987,-0.050133826424870465,-0.02685360103626943,0,198811,-2.29,-1.65,1.41,-0.28,1.62,0.57
1988-12,0.02519541282051282,0.03222910282776349,0.03980474035989717,0.05015768380462725,0.03644160256410257,0.011246189743589746,0,198812,1.49,2.01,-1.69,0.69,-0.38,0.63
1989-01,0.05626958567774937,0.047802554987212274,0.0558380282051282,0.046871762148337597,0.061146961636828645,0.004877375959079278,0,198901,6.1,-2.31,0.6,-0.95,0.14,0.55
1989-02,0.0022599252577319585,-0.005822845360824742,-0.0006536124031007757,0.012483023195876288,0.01113503350515464,0.008875108247422681,0,198902,-2.25,2.71,1.01,-0.87,1.81,0.61
1989-03,0.02332268579234973,0.030110598360655733,0.015905542465753424,0.021741571038251365,0.011066950819672131,-0.012255734972677599,0,198903,1.57,0.68,0.58,0.05,0.72,0.67
1989-04,0.05354147967479675,0.05661704891304348,0.04991538586956522,0.05110263043478261,0.030784067750677505,-0.022757411924119245,0,198904,4.33,-0.78,-1.42,0.71,-0.57,0.67
1989-05,0.04965333910891089,0.04503039454094293,0.03947654342431762,0.04419460545905707,0.02780306451612903,-0.02185027459278186,0,198905,3.35,-0.01,-0.88,0.49,-0.08,0.79
1989-06,-0.01214410046728972,-0.027704224299065418,-0.015471219626168226,-0.013719219626168226,-0.015628403263403267,-0.0034843027961135465,0,198906,-1.35,-1.09,2.25,0.27,1.56,0.71
1989-07,0.07186581596452328,0.06500573333333334,0.051710735555555554,0.04439100222222222,0.021622432372505544,-0.050243383592017736,0,198907,7.2,-4.15,-2.79,1.98,-0.58,0.7
1989-08,0.03394399145299145,0.03281467237687366,0.02224313490364026,0.024360237687366164,0.024850550321199146,-0.009093441131792303,0,198908,1.44,0.48,0.6,0.39,-0.58,0.74
1989-09,-0.00021063362068965563,0.00027996982758620706,0.006392015118790498,0.0035702844827586212,-0.017230714902807778,-0.017020081282118123,0,198909,-0.76,0.49,-1.27,1.4,0.5,0.65
1989-10,-0.03412438197424893,-0.04668663010752688,-0.04306274248927038,-0.061793576344086026,-0.10009284334763949,-0.06596846137339056,0,198910,-3.67,-3.3,-1.11,0.11,-0.04,0.68
1989-11,0.0131971906779661,0.010308331210191084,0.013233450106157112,0.00041100424628450096,-0.02134555508474576,-0.03454274576271186,0,198911,1.03,-1.29,-1.09,-0.86,1.41,0.69
1989-12,0.01850158598726115,0.012043953290870489,0.009679456475583863,-0.0019684118895966015,-0.023692827659574468,-0.04219441364683561,0,198912,1.16,-2.27,0.16,-0.07,1.42,0.61
1990-01,-0.07328883617021276,-0.08498933901918976,-0.0848680255319149,-0.08301324733475479,-0.0664632425531915,0.006825593617021258,0,199001,-7.85,-1.31,0.85,-1.17,1.35,0.57
1990-02,0.022453475268817205,0.026108830107526883,0.030146412903225808,0.02210024516129032,0.018822236559139786,-0.0036312387096774194,0,199002,1.11,1.17,0.64,-0.03,-0.66,0.57
1990-03,0.05060722004889976,0.03266565770171149,0.03353420293398533,0.0368758239608802,0.015327339853300733,-0.03527988019559903,0,199003,1.83,1.62,-2.92,2.04,-1.02,0.64
1990-04,-0.03050741975308642,-0.021465701234567904,-0.03180699259259259,-0.04602522716049383,-0.05416735802469136,-0.02365993827160494,0,199004,-3.36,-0.33,-2.59,1.78,-0.98,0.69
1990-05,0.09632181514476615,0.08521574553571429,0.08406002901785714,0.07657331473214286,0.04685819821826281,-0.04946361692650334,0,199005,8.42,-2.35,-3.83,1.57,-1.68,0.68
1990-06,0.004373720250521921,0.003713140167364016,0.005164146137787056,0.004150566945606695,-0.009722108559498958,-0.014095828810020878,0,199006,-1.09,1.35,-1.93,-1.03,-0.39,0.63
1990-07,-0.011725494908350306,-0.0312123306122449,-0.032989154786150714,-0.041295455102040815,-0.060246446028513236,-0.04852095112016293,0,199007,-1.9,-3.16,-0.03,-0.18,3.21,0.68
1990-08,-0.10513115662650603,-0.12328114486921529,-0.1286080702811245,-0.13584180885311872,-0.14142131927710844,-0.036290162650602406,0,199008,-10.15,-3.87,1.64,-0.35,2.96,0.66
1990-09,-0.05933767002012073,-0.07151035010060362,-0.09125095774647887,-0.10837210080645161,-0.1240007384305835,-0.06466306841046277,0,199009,-6.12,-3.74,0.64,0.06,3.67,0.6
1990-10,-0.025614334004024145,-0.028420016129032263,-0.05232776257545271,-0.04938792741935484,-0.11267792555331992,-0.08706359154929577,0,199010,-1.92,-5.12,0.1,2.97,-0.3,0.68
1990-11,0.08211378757515031,0.08760631062124248,0.08716178557114228,0.07676616833667334,0.059630172344689376,-0.022483615230460934,0,199011,6.35,0.07,-3.1,0.65,-4.74,0.57
1990-12,0.048855633401222,0.05924732448979592,0.04623499387755102,0.03548710816326531,-0.02299868431771894,-0.07185431771894094,0,199012,2.46,0.67,-1.7,2.73,-1.89,0.6
1991-01,0.07221696544715449,0.07663694908350306,0.0853546048879837,0.09819603054989817,0.13916839307535642,0.06695142762820193,0,199101,4.69,3.91,-1.6,1.28,-3.99,0.52
1991-02,0.07702656198347108,0.09299846583850933,0.10487510351966874,0.1333141552795031,0.20313894628099172,0.12611238429752064,0,199102,7.19,3.94,-0.58,-0.2,-0.33,0.48
1991-03,0.06678288066825776,0.05575642105263158,0.049957698564593304,0.05888675598086124,0.08321577751196171,0.016432896843703956,0,199103,2.65,3.83,-1.39,-0.53,-1.06,0.44
1991-04,-0.0017705011764705878,0.011179943396226417,0.01080014588235294,0.01748317924528302,0.012382365566037732,0.014152866742508319,0,199104,-0.28,0.31,1.5,0.62,0.74,0.53
1991-05,0.04464494793926248,0.04777290869565218,0.04191808260869565,0.045448695652173916,0.028747425162689803,-0.015897522776572675,0,199105,3.65,0.14,-0.52,2.0,-2.43,0.47
1991-06,-0.040879028925619836,-0.04516712008281574,-0.04251777018633541,-0.04138492546583852,-0.054255679089026926,-0.01337665016340709,0,199106,-4.94,0.24,1.15,1.79,0.65,0.42
1991-07,0.047202512,0.05630731663326653,0.04894158917835671,0.031815943887775554,0.019613141999999997,-0.027589370000000005,0,199107,4.24,-0.96,-1.32,1.6,-1.36,0.49
1991-08,0.038203108267716536,0.03729515551181103,0.03287477470355731,0.033676076771653546,0.0163850531496063,-0.021818055118110236,0,199108,2.32,1.4,-0.78,0.84,-0.34,0.46
1991-09,-0.0007884277227722762,-0.005597107142857143,0.008844714285714287,0.004537873015873016,-0.01657449306930693,-0.015786065346534654,0,199109,-1.59,1.56,-1.08,-1.82,0.08,0.46
1991-10,0.02756934842519685,0.021846347140039447,0.029523339250493094,0.01857522090729783,0.0035230256410256435,-0.024046322784171206,0,199110,1.29,0.91,-0.47,-1.7,-0.23,0.42
1991-11,-0.025080095890410957,-0.04226060588235294,-0.04337645882352941,-0.04574009803921569,-0.03953756862745098,-0.014457472737040025,0,199111,-4.19,-0.83,-1.89,1.11,0.01,0.39
1991-12,0.09736528543689321,0.11246561089494163,0.10675764591439689,0.07686808754863812,0.018321483495145632,-0.07904380194174758,0,199112,10.84,-2.4,-4.17,3.55,-3.12,0.38
1992-01,0.0265369453125,0.041794988258317026,0.061049177734375,0.0931895479452055,0.216937197265625,0.190400251953125,0,199201,-0.59,9.18,4.71,-1.32,3.2,0.34
1992-02,0.027014192156862748,0.017345701960784315,0.026869532416502945,0.022024527450980394,0.062413403921568626,0.03539921176470588,0,199202,1.09,1.33,6.47,0.08,2.19,0.28
1992-03,-0.035115137777777784,-0.03239292873051225,-0.026033102449888646,-0.03389260801781737,-0.037840115812917595,-0.0027249780351398106,0,199203,-2.66,-0.93,3.56,-0.01,1.95,0.34
1992-04,-0.0402368982300885,-0.009137426991150444,-0.013512064159292037,-0.03129507743362832,-0.05941051991150442,-0.019173621681415925,0,199204,1.07,-5.7,4.34,1.69,2.23,0.32
1992-05,0.007616921529175051,0.008631957661290324,0.005033726358148892,0.002976274193548387,0.0018717484909456731,-0.005745173038229377,0,199205,0.3,0.21,1.19,-0.95,0.48,0.28
1992-06,-0.020614706796116506,-0.039132097087378644,-0.026613568093385213,-0.05836270097087378,-0.073078,-0.0524632932038835,0,199206,-2.34,-2.73,3.24,-0.05,1.01,0.32
1992-07,0.047944912962962966,0.044920864564007415,0.03365168089053803,0.031691901669758805,0.014450324074074077,-0.033494588888888885,0,199207,3.77,-0.62,-0.56,1.3,-0.91,0.31
1992-08,-0.01675420107719928,-0.024378272890484737,-0.024235753597122305,-0.024574271095152606,-0.046513432675044875,-0.029759231597845593,0,199208,-2.38,-0.42,-1.1,3.72,-1.65,0.26
1992-09,0.027473983725135622,0.027442192028985506,0.020830321880650995,0.01395001811594203,0.004969347197106688,-0.022504636528028935,0,199209,1.19,0.48,-0.26,1.64,-0.59,0.26
1992-10,0.04211612897526502,0.039699520353982304,0.03201884628975265,0.0209231610619469,0.016749079505300354,-0.025367049469964664,0,199210,1.02,2.07,-1.98,1.24,-0.79,0.23
1992-11,0.0660202055749129,0.07578920905923345,0.08227456097560976,0.08471600174216028,0.10736315505226482,0.041342949477351926,0,199211,4.13,3.94,-1.35,-0.68,-1.59,0.23
1992-12,0.043269914485165796,0.020255150087260036,0.041467204188481675,0.030572237347294938,0.04481356544502618,0.0015436509598603862,0,199212,1.53,1.68,2.62,-0.48,0.84,0.28
1993-01,0.0370062504347826,0.024834582608695654,0.030758543554006965,0.025390681739130432,0.05259472695652174,0.015588476521739135,0,199301,0.93,1.93,5.94,-1.84,2.91,0.23
1993-02,0.015592988054607506,-0.030127779487179488,-0.0323628188034188,-0.0282926,-0.03379335153583617,-0.04938633959044368,0,199302,0.12,-3.45,6.42,-0.42,4.13,0.22
1993-03,0.036241667296786385,0.04071777840909091,0.03429115311909263,0.024972274621212123,0.0008934480151228738,-0.03534821928166351,0,199303,2.3,0.09,1.18,-0.15,0.9,0.25
1993-04,-0.04021951503759399,-0.02135272316384181,-0.031399548022598874,-0.030122649717514122,-0.042360530075187974,-0.0021410150375939865,0,199304,-3.05,-0.85,2.49,-3.61,1.38,0.24
1993-05,0.04430083783783784,0.03427668953068592,0.043931430630630625,0.0395866835443038,0.04443296576576577,0.00013212792792792472,0,199305,2.89,1.9,-3.42,-0.12,-1.04,0.22
1993-06,0.016992321367521365,-0.0016978547008546995,0.007955162393162395,-0.0039253025641025644,-0.02168968205128205,-0.038682003418803415,0,199306,0.31,0.13,2.75,-0.92,1.21,0.25
1993-07,0.021939158940397354,0.0015296583747927022,0.008389051409618573,0.005370393034825871,-0.014288980132450332,-0.036228139072847686,0,199307,-0.34,0.95,2.85,-1.87,2.06,0.24
1993-08,0.039345290791599354,0.042293344660194174,0.05605617313915858,0.04422161812297734,0.044377491909385114,0.00503220111778576,0,199308,3.71,0.1,0.13,-1.54,-0.04,0.25
1993-09,0.021057187702265372,0.01940653721682848,0.024752129659643435,0.019012907766990293,0.01445384627831715,-0.006603341423948222,0,199309,-0.12,2.98,-0.31,0.24,-0.16,0.26
1993-10,0.005908823529411764,0.020488063593004768,0.026639489666136724,0.037570623211446746,0.05822988076311605,0.05232105723370428,0,199310,1.41,1.89,-2.76,0.57,0.6,0.22
1993-11,-0.03183930379746835,-0.014678166139240506,-0.02151081616481775,-0.02936680379746836,-0.02431723259493671,0.007522071202531639,0,199311,-1.89,-1.27,-0.74,2.23,-0.94,0.25
1993-12,0.033215156494522696,0.04265677899686521,0.035923043887147336,0.021324471786833856,-0.01122149765258216,-0.044436654147104855,0,199312,1.65,1.4,0.32,1.16,-0.34,0.23
1994-01,0.025567320987654324,0.033910290123456796,0.03520237403400309,0.03834624074074074,0.05661713580246914,0.031049814814814815,0,199401,2.87,-0.06,1.15,-1.66,1.43,0.25
1994-02,-0.010857410937500001,0.006562851562500001,-0.007133234375000001,-0.0097645046875,-0.014989959375,-0.0041325484374999995,0,199402,-2.55,2.67,-1.54,2.14,-1.0,0.21
1994-03,-0.054291160267111845,-0.048927530100334446,-0.04700695826377295,-0.04716573244147157,-0.0692901936560935,-0.014999033388981654,0,199403,-4.78,-1.04,1.6,0.69,1.28,0.27
1994-04,0.006972133671742808,0.011105157360406091,0.0036755008460236877,-0.008391368866328257,-0.043289681895093066,-0.05026181556683587,0,199404,0.68,-1.01,1.66,1.07,1.11,0.27
1994-05,-0.003071495974235105,-0.014084496774193548,-0.00554848870967742,-0.007758495161290322,-0.0184497230273752,-0.015378227053140096,0,199405,0.58,-2.56,0.67,0.6,0.68,0.31
1994-06,-0.011566044410413477,-0.03341093098159509,-0.030604822358346096,-0.036298211656441724,-0.05163703675344564,-0.040070992343032165,0,199406,-3.03,-0.5,1.67,1.21,1.47,0.31
1994-07,0.027628682284040997,0.018719410557184752,0.023106048387096775,0.011307353372434019,-0.007176616398243045,-0.03480529868228404,0,199407,2.82,-1.85,0.58,-0.65,0.14,0.28
1994-08,0.041639325214899714,0.0586216700143472,0.07123617790530846,0.044777017216642755,0.056936210601719196,0.015296885386819482,0,199408,4.01,1.37,-2.51,0.95,-1.47,0.37
1994-09,-0.010910323232323233,0.0017637037572254325,0.004123546897546897,0.0070404783236994225,0.00427025974025974,0.015180582972582974,0,199409,-2.31,2.8,-1.89,0.52,0.93,0.37
1994-10,-0.002514021216407355,0.017260062322946176,0.017129259206798864,0.0017475084985835688,-0.013687912181303115,-0.01117389096489576,0,199410,1.34,-2.3,-1.62,0.23,-0.68,0.38
1994-11,-0.03493262039660057,-0.03617352907801419,-0.03888380169971672,-0.04530582836879433,-0.054017987252124644,-0.019085366855524075,0,199411,-4.04,0.07,-0.7,0.42,-0.5,0.37
1994-12,0.019122627674750356,0.020167804564907275,0.009090011444921317,-0.006956860199714693,-0.034810171184022826,-0.05393279885877318,0,199412,0.86,0.0,-0.13,0.37,0.38,0.44
1995-01,0.034590298465829845,0.0056709902234636875,-0.00017313389121338717,0.014624230446927374,0.0391893640167364,0.004599065550906556,0,199501,1.8,-3.06,2.57,0.17,-0.75,0.42
1995-02,0.04943421151079136,0.040359456772334296,0.04315807060518732,0.04233846043165467,0.027866290647482014,-0.021567920863309345,0,199502,3.63,-0.54,1.08,0.59,-0.33,0.4
1995-03,0.03003748101265823,0.019168782884310617,0.02708048892405063,0.02015787321711569,0.005087319620253163,-0.024950161392405065,0,199503,2.19,-0.51,-2.15,-0.17,0.22,0.46
1995-04,0.026390276699029123,0.0302470857605178,0.02013428525121556,0.01908302103559871,0.007921888349514565,-0.01846838834951456,0,199504,2.11,-0.22,1.71,0.41,0.9,0.44
1995-05,0.03388144969512195,0.016992775914634148,0.023269858231707317,0.014110503048780487,0.01274038320610687,-0.02114106648901508,0,199505,2.9,-2.19,2.29,0.39,0.04,0.54
1995-06,0.03127892296511628,0.047652959302325576,0.06362105087209302,0.04865102034883721,0.05911779069767442,0.027838867732558142,0,199506,2.72,3.06,-2.54,-0.33,-2.44,0.47
1995-07,0.047164348377997184,0.05875463983050847,0.07637479096045198,0.055575145480225976,0.054281086280056574,0.0071167379020593904,0,199507,3.72,2.09,-1.62,0.3,-1.65,0.45
1995-08,0.03645510674157303,0.0209920154494382,0.009761990168539325,0.02335828370786517,0.042646494382022476,0.006191387640449443,0,199508,0.55,1.75,2.79,-1.24,1.62,0.47
1995-09,0.0341094441301273,0.023654679886685553,0.020119726628895183,0.023034579320113314,0.008743302687411598,-0.025366141442715703,0,199509,3.35,-1.88,-0.04,1.03,0.36,0.43
1995-10,-0.011437562237762237,-0.033774063025210084,-0.045507219887955176,-0.051052162464986,-0.09585811608391608,-0.08442055384615384,0,199510,-1.52,-4.04,-0.5,1.91,-0.05,0.47
1995-11,0.042306302040816327,0.04263122070844687,0.03971158095238095,0.034030852861035424,0.0068057578231292505,-0.03550054421768708,0,199511,3.96,-1.07,0.51,-0.62,1.12,0.42
1995-12,0.021349510148849796,0.016966361788617886,0.01102622764227642,0.010256981029810298,0.0004001138211382133,-0.020949396327711582,0,199512,1.03,0.72,0.22,-1.37,3.1,0.49
1996-01,0.017937794666666666,0.0032115613333333322,-0.006820983978638185,0.006828054666666666,0.027434982666666666,0.009497188,0,199601,2.26,-2.56,0.38,0.18,2.31,0.43
1996-02,0.02932415633423181,0.03367510931174089,0.04250635087719298,0.029255655870445343,0.025951853099730457,-0.0033723032345013525,0,199602,1.33,1.77,-1.08,0.24,-1.9,0.39
1996-03,0.037936945347119645,0.029978525849335302,0.0274290650887574,0.018610813884785818,0.024028483013293942,-0.013908462333825703,0,199603,0.73,1.61,0.35,1.42,-0.95,0.39
1996-04,0.05894759192825113,0.0589515776119403,0.06783372686567166,0.07116286268656717,0.08405543880597015,0.02510784687771902,0,199604,2.06,4.71,-4.02,-0.14,-2.11,0.46
1996-05,0.02445080918220947,0.041144222381635585,0.052457592539454805,0.047013093256814915,0.07245994691535151,0.04800913773314204,0,199605,2.36,3.21,-0.83,0.12,-0.3,0.42
1996-06,0.002301573154362415,-0.024175150537634405,-0.04603491677852349,-0.04543986559139785,-0.08820518791946308,-0.09050676107382549,0,199606,-1.14,-3.65,2.35,3.51,1.22,0.4
1996-07,-0.03702851928020566,-0.06282470527670528,-0.10676384555984557,-0.10026857786357787,-0.13505786118251928,-0.09802934190231362,0,199607,-5.97,-3.81,5.14,2.95,2.6,0.45
1996-08,0.04774402405063291,0.05441860583016476,0.05944128010139417,0.05446887452471483,0.036682878481012655,-0.011061145569620255,0,199608,2.77,2.57,-0.74,-0.37,-2.42,0.41
1996-09,0.03998986294416244,0.045537457433290976,0.05100093900889453,0.032180505717916134,0.016897298602287166,-0.02309256434187527,0,199609,5.01,-1.39,-2.72,1.27,-2.22,0.44
1996-10,0.021312531520395552,0.006209601485148515,-0.0273242978986403,-0.02297392821782178,-0.07205060815822002,-0.09336313967861558,0,199610,0.86,-3.77,4.94,1.4,3.25,0.42
1996-11,0.06414551640340219,0.053767692588092345,0.030544240583232074,0.025922979343863912,0.010310606318347508,-0.05383491008505468,0,199611,6.25,-3.8,1.39,2.12,-0.79,0.41
1996-12,0.0255331652490887,0.012695041362530416,0.008305849331713244,0.017539429440389293,-0.02582185783718104,-0.05135502308626974,0,199612,-1.7,3.25,1.31,0.37,1.49,0.46
1997-01,0.03705086406619385,0.02942218676122932,0.031743286052009455,0.04660018676122931,0.07336135933806147,0.03631049527186762,0,199701,4.99,-1.82,-1.42,1.19,-0.02,0.45
1997-02,0.019172422716627637,-0.00883760701754386,-0.0519853939038687,-0.02536477426900585,-0.033783559718969555,-0.052955982435597196,0,199702,-0.49,-2.59,5.67,0.67,3.47,0.39
1997-03,-0.03224437722908094,-0.05262572115384616,-0.04980194787379972,-0.06246472390109889,-0.0965193525377229,-0.06427497530864196,0,199703,-5.03,-0.43,3.39,0.5,1.66,0.43
1997-04,-0.003960923928077455,0.002803963988919667,-0.0017517382271468145,-0.011704995844875344,-0.0640662728531856,-0.060105348925108146,0,199704,4.04,-5.7,0.07,3.26,-0.72,0.43
1997-05,0.10191724833110813,0.12222849132176236,0.1157843831775701,0.1195832363150868,0.13162826568758346,0.029711017356475328,0,199705,6.74,4.75,-4.13,-1.02,-2.96,0.49
1997-06,0.060957545,0.050001242803504375,0.0615413075,0.05037782978723404,0.028957906250000002,-0.03199963875,0,199706,4.1,1.19,1.58,0.56,0.66,0.37
1997-07,0.06481626899879372,0.06165245893719807,0.06489867149758455,0.054648745169082115,0.04317034057971014,-0.021645928419083582,0,199707,7.33,-2.77,0.26,0.07,-2.57,0.43
1997-08,0.01896596381182147,0.014564061668681984,0.018438823671497587,0.038838617149758455,0.056943110977080824,0.03797714716525935,0,199708,-4.15,7.61,1.18,-1.11,-0.04,0.41
1997-09,0.08198501696969696,0.06782078545454545,0.07263708009708739,0.09114882545454546,0.11065501454545455,0.028669997575757597,0,199709,5.35,2.49,0.37,-1.63,-0.91,0.44
1997-10,-0.013909999999999997,-0.0394646766826923,-0.050309320143884895,-0.03973006722689076,-0.04967112949640288,-0.03576112949640288,0,199710,-3.8,-0.52,2.27,1.0,1.94,0.42
1997-11,0.023681635514018688,0.006235601635514019,-0.012360305263157895,-0.016333648364485982,-0.06971171144859813,-0.09339334696261681,0,199711,2.98,-5.1,1.19,2.8,1.83,0.39
1997-12,0.041258948538011694,0.016297439766081872,-0.010409853629976583,-0.008084130994152047,-0.09048612514619882,-0.1317450736842105,0,199712,1.32,-2.04,3.84,0.75,1.93,0.48
1998-01,-0.013465392156862745,-0.003607915704387992,-0.008767474595842956,-0.009414418013856816,0.017868931949250287,0.03133432410611303,0,199801,0.15,-1.36,-1.63,0.86,-0.73,0.43
1998-02,0.07930093942857143,0.07419282151029749,0.07605886857142856,0.07503094164759726,0.07141765942857144,-0.007883279999999993,0,199802,7.04,0.2,-0.85,-0.31,-2.54,0.39
1998-03,0.0521181130551817,0.05722271870794078,0.055911753701211306,0.041324683714670254,0.05285783176312248,0.0007397187079407827,0,199803,4.76,-0.65,1.39,-0.26,-0.37,0.39
1998-04,0.004739637741046831,0.019746829201101924,0.015715961379310348,0.02338230344827586,0.027255695592286504,0.022516057851239675,0,199804,0.73,-0.01,0.94,-1.69,-0.36,0.43
1998-05,-0.03784911170928667,-0.05386995154777927,-0.03433884791386272,-0.060609039083557956,-0.07400850740242261,-0.03615939569313594,0,199805,-3.07,-2.93,3.4,1.07,2.59,0.4
1998-06,0.0017453774999999993,0.0107073375,0.003687357947434294,-0.02436989125,-0.0720023717146433,-0.0737477492146433,0,199806,3.18,-3.65,-1.97,-0.27,-2.97,0.41
1998-07,-0.05066381553398058,-0.054977575941676786,-0.07437178398058251,-0.08295231591737545,-0.08016496844660195,-0.02950115291262137,0,199807,-2.46,-5.27,-1.78,1.74,0.45,0.4
1998-08,-0.15735852443384982,-0.1801747219570406,-0.2086004659498208,-0.22848110978520286,-0.2670323914081146,-0.10967386697426476,0,199808,-16.08,-5.18,3.53,3.39,5.89,0.43
1998-09,0.05700980820265379,0.05634281905910735,0.05479333333333332,0.06535780940892642,0.05810265983112183,0.0010928516284680403,0,199809,6.15,-0.77,-3.42,-1.89,-2.97,0.46
1998-10,0.05698212838633687,0.05900510966981132,0.045662595995288574,0.0580690625,0.039887981132075465,-0.017094147254261408,0,199810,7.13,-3.43,-2.23,0.93,0.32,0.32
1998-11,0.051566279015240336,0.05510020046893317,0.06321081103286384,0.0823024595545135,0.14059583802816902,0.0890295590129287,0,199811,6.1,0.74,-3.25,-0.85,-1.2,0.31
1998-12,0.02815865320665083,0.049174519619500597,0.06651778147268408,0.05575285850178359,-0.005356841854934601,-0.03351549506158543,0,199812,6.16,-1.57,-4.19,-0.75,-3.4,0.38
1999-01,-0.009200937793427231,-0.00686217723004695,0.02075311502347418,0.06805090599294947,0.15744925117370895,0.16665018896713618,0,199901,3.5,-0.74,-4.6,-2.79,-6.77,0.35
1999-02,-0.03248320536756126,-0.05735672812135356,-0.0735361413551402,-0.08176514819136523,-0.07997135005834306,-0.0474881446907818,0,199902,-4.08,-5.23,1.92,-1.21,4.07,0.35
1999-03,-0.014122793248945146,0.011259964788732396,0.006253385372714486,-0.01615123661971831,-0.004706133614627288,0.009416659634317858,0,199903,3.45,-4.23,-2.74,-4.07,-1.41,0.43
1999-04,0.07118194230769231,0.06301212740740741,0.09061412444444444,0.10068562759643916,0.10624258160237389,0.035060639294681575,0,199904,4.33,4.53,2.46,-2.53,0.9,0.37
1999-05,0.030438964860907764,0.0057975865102639305,0.026310851906158356,0.051141794721407625,0.02981216568914956,-0.0006267991717582057,0,199905,-2.46,3.71,2.35,0.93,3.33,0.34
1999-06,0.03948182337317397,0.042490086436170214,0.07050853917662682,0.05906581117021277,0.03238023505976095,-0.007101588313413017,0,199906,4.77,2.29,-3.19,1.14,-3.23,0.4
1999-07,0.00018875609756097616,-0.020449737789203084,-0.01324860796915167,-0.003956161953727508,0.01963381129653402,0.019445055198973046,0,199907,-3.49,2.57,-0.44,0.36,3.22,0.38
1999-08,-0.02793598992443325,-0.04501307313997478,-0.017880470365699876,-0.03563015762925599,-0.04317211964735516,-0.015236129722921907,0,199908,-1.38,-1.73,-1.87,-0.24,0.64,0.39
1999-09,-0.028467821882951654,-0.026798180891719744,-0.015167464968152867,-0.005516620382165605,-0.017893258598726116,0.010574563284225538,0,199909,-2.79,2.59,-3.5,-0.75,-1.23,0.39
1999-10,0.012468429648241207,0.006316120754716982,0.010099927044025158,0.005096162264150943,-0.04607363396226415,-0.05854206361050536,0,199910,6.12,-6.91,-3.37,-1.75,-1.19,0.39
1999-11,0.0071839387499999996,0.0374438475,0.09030856624999999,0.10555724000000001,0.171592495,0.16440855625,0,199911,3.37,5.8,-6.11,-4.27,-1.75,0.36
1999-12,0.014028606557377048,0.044469452711223205,0.12515229292929292,0.1304303581336696,0.10310902143757882,0.08908041488020177,0,199912,7.72,5.39,-8.32,-7.6,-5.63,0.44
2000-01,-0.0387164397515528,-0.03487500869565218,-0.02644216645962733,0.026950684472049687,0.12371206211180125,0.16242850186335406,0,200001,-4.74,4.44,-1.91,-6.31,4.75,0.41
2000-02,-0.019721642038216563,0.04551466198979592,0.17577149107142856,0.1564551262755102,0.1729458633461047,0.19266750538432126,0,200002,2.45,18.34,-9.7,-18.73,-0.36,0.43
2000-03,0.06687003392330385,-0.030161810930576075,0.013494383480825958,0.018752502215657312,0.019497964601769915,-0.04737206932153393,0,200003,5.2,-15.35,8.17,11.82,-1.65,0.47
2000-04,-0.0313263578125,-0.08734168906249999,-0.06966290923317685,-0.05745839375,-0.11042618779342722,-0.07909982998092722,0,200004,-6.4,-5.01,7.26,7.66,5.65,0.46
2000-05,0.014459359281437125,-0.039467193113772454,-0.06923272005988024,-0.05813831137724552,-0.08852301047904192,-0.10298236976047905,0,200005,-4.42,-3.84,4.81,4.17,1.3,0.5
2000-06,5.832599724896863e-05,0.04376306611570248,0.15321534022038566,0.14150280303030305,0.07335673278236915,0.07329840678512019,0,200006,4.64,9.93,-8.43,-8.32,-2.93,0.4
2000-07,0.033633687999999995,0.00010299732977303133,-0.04426889719626168,-0.04813045866666667,-0.046108213618157534,-0.07974190161815753,0,200007,-2.51,-1.03,8.3,5.82,2.95,0.48
2000-08,0.07328064058355438,0.0688569973474801,0.10886179442970823,0.07664823872679045,0.04258617709720373,-0.030694463486350652,0,200008,7.03,-1.04,-1.38,-3.22,1.09,0.5
2000-09,0.016650894594594595,-0.015061504736129905,-0.03761996075778078,-0.06751903658536584,-0.10508402710027101,-0.1217349216948656,0,200009,-5.45,0.19,7.17,2.56,5.53,0.51
2000-10,0.007790184594953519,0.001732936170212766,-0.06976625232403717,-0.09887106515957449,-0.13888920478723404,-0.14667938938218755,0,200010,-2.76,-2.64,5.7,9.6,3.82,0.56
2000-11,-0.010341752631578946,-0.03748548680738787,-0.15697075757575757,-0.16960107773386038,-0.25331382631578947,-0.24297207368421053,0,200011,-10.72,-0.6,12.32,13.09,8.39,0.51
2000-12,0.08857387516778524,0.07278021208053691,0.06018306586021505,0.016357059060402687,-0.1151307932885906,-0.20370466845637586,0,200012,1.19,3.26,7.61,1.72,4.78,0.5
2001-01,0.10502366311584554,0.04108751131824235,0.09250002133333332,0.1702552183754993,0.6188105272969374,0.5137868641810919,0,200101,3.13,5.5,-5.09,-4.7,-5.0,0.54
2001-02,0.00023356462585033983,-0.04406888692098093,-0.1156160231292517,-0.1372732288828338,-0.1746457387755102,-0.17487930340136054,0,200102,-10.05,2.82,12.48,9.11,9.05,0.38
2001-03,-0.0348163119122257,-0.055847462382445145,-0.06397348508634222,-0.09758293416927898,-0.1524595909090909,-0.11764327899686519,0,200103,-7.26,2.33,6.42,3.36,3.91,0.42
2001-04,0.09403051490066225,0.08502570978441129,0.09932518573797679,0.11709760033167496,0.09828738142620232,0.004256866525540068,0,200104,7.94,-0.86,-4.68,-3.07,-3.19,0.39
2001-05,0.05097815259740259,0.04856658211382114,0.04260588780487805,0.06761669430894308,0.0961013463414634,0.04512319374406081,0,200105,0.72,3.59,3.38,0.26,1.88,0.32
2001-06,0.03841387537537538,0.022319527819548872,0.01448413963963964,0.03814197744360902,-0.004678603603603602,-0.04309247897897898,0,200106,-1.94,6.57,-1.13,1.6,-1.5,0.28
2001-07,0.01890635469448584,-0.0013078029850746272,-0.04846477910447761,-0.06586932686567164,-0.08515446337817638,-0.10406081807266222,0,200107,-2.13,-2.83,5.21,7.42,3.06,0.3
2001-08,-0.006563907185628742,-0.02352633183856502,-0.05010101793721973,-0.059471088191330346,-0.08628500896860986,-0.07972110178298111,0,200108,-6.46,2.71,2.3,4.05,6.56,0.31
2001-09,-0.07858194242424243,-0.10273891350531107,-0.1497453590909091,-0.19644800910470409,-0.2189548727272727,-0.14037293030303027,0,200109,-9.25,-5.73,1.45,5.0,3.2,0.28
2001-10,0.034217165151515155,0.04734647040971168,0.09158718057663126,0.10897807890743551,0.19662683156297422,0.16240966641145907,0,200110,2.46,5.28,-7.66,-2.99,-4.54,0.22
2001-11,0.060627729770992365,0.07716161068702292,0.07590977217125382,0.12055827786259542,0.20318241896024467,0.1425546891892523,0,200111,7.54,-0.31,2.22,-3.72,-1.62,0.17
2001-12,0.06115081076923076,0.0514863281972265,0.06506099229583974,0.07218460708782744,0.13275118981481482,0.07160037904558406,0,200112,1.6,5.16,0.85,0.35,-0.27,0.15
2002-01,0.014713952743902442,0.013581502290076337,-0.013667964885496183,-0.03175460458015267,0.02983993119266055,0.015125978448758109,0,200201,-1.44,1.26,3.44,4.69,2.83,0.14
2002-02,0.023115831269349844,-0.0023979798449612418,-0.03860454179566564,-0.07942485736434109,-0.14025146749226008,-0.16336729876160994,0,200202,-2.29,-0.36,2.16,8.06,5.11,0.13
2002-03,0.0815612287145242,0.07570111872909699,0.07655742140468229,0.10859229264214047,0.12742551919866446,0.04586429048414026,0,200203,4.24,4.25,1.06,-1.78,0.57,0.13
2002-04,0.025710660929432014,0.008256479310344827,0.007569320137693632,-0.04077172241379311,-0.0684470378657487,-0.09415769879518071,0,200204,-5.2,6.72,3.88,4.56,5.38,0.15
2002-05,-0.012754397959183672,-0.01579184497444634,-0.024641492333901192,-0.05078580749574106,-0.08891803918228279,-0.07616364122309911,0,200205,-1.38,-3.02,1.53,2.37,2.43,0.14
2002-06,-0.0058945619967793895,-0.04224434838709677,-0.05149497584541063,-0.09601329032258064,-0.1471848180354267,-0.1412902560386473,0,200206,-7.21,3.89,-0.03,3.93,2.49,0.13
2002-07,-0.08422700320000001,-0.10147767840000001,-0.13707687980769231,-0.1777618016,-0.1742876112,-0.09006060799999999,0,200207,-8.18,-6.43,-3.85,3.79,-0.99,0.15
2002-08,0.023641912559618443,0.008543505564387918,0.006527664012738853,-0.029161120826709064,-0.013698887122416533,-0.03734079968203498,0,200208,0.5,-1.3,3.29,1.36,-1.46,0.14
2002-09,-0.05263679809220985,-0.0613983640699523,-0.08479191401273885,-0.11453647694753576,-0.16876200953895074,-0.11612521144674089,0,200209,-10.35,3.07,1.47,3.29,-2.19,0.14
2002-10,0.044649903633491306,0.03857865768621237,0.04030490679304897,0.06504240348101265,0.11929233333333332,0.07464242969984201,0,200210,7.84,-4.3,-3.94,-3.4,0.77,0.14
2002-11,0.05158695734597157,0.04582106003159558,0.08358100473933648,0.163066093206951,0.35340407424960507,0.3018171169036335,0,200211,5.96,2.93,-1.21,-9.21,5.17,0.12
2002-12,-0.0068453587301587305,-0.030923123809523802,-0.05227705873015872,-0.0779112015873016,-0.12153431587301587,-0.11468895714285714,0,200212,-5.76,0.62,2.14,6.29,-1.68,0.11
2003-01,-0.015514441082802548,-0.026679472929936304,-0.02178686305732484,-0.03610343789808917,0.02607340127388535,0.0415878423566879,0,200301,-2.57,0.72,-0.81,-1.0,0.71,0.1
2003-02,-0.01958673248407643,-0.031165275917065388,-0.032090334928229665,-0.03236849441786284,-0.0406687888,-0.02108205631592357,0,200302,-1.88,-0.93,-1.38,0.83,-0.61,0.09
2003-03,0.018498248695652177,0.015569613240418117,0.0037626045296167247,0.0027707839721254355,0.013430970434782606,-0.0050672782608695704,0,200303,1.09,0.67,-1.91,1.85,-0.75,0.1
2003-04,0.0897504074733096,0.09364988591800358,0.09382759358288771,0.11544506595365418,0.16422232740213522,0.07447191992882561,0,200304,8.22,1.04,1.17,-4.7,1.09,0.1
2003-05,0.09050587388987567,0.0889980355239787,0.09650057371225577,0.13947109769094135,0.24570830960854095,0.15520243571866527,0,200305,6.05,4.87,0.5,-7.06,2.99,0.09
2003-06,0.029858006622516555,0.02667930298013245,0.027631597682119206,0.030477336092715235,0.06943960927152318,0.03958160264900662,0,200306,1.42,1.68,0.15,0.48,-0.35,0.1
2003-07,0.05251774794069193,0.05316597194719473,0.06656917462932455,0.07082664026402641,0.10381720627062704,0.05129945832993511,0,200307,2.35,4.54,-1.24,-4.15,1.77,0.07
2003-08,0.03643272549019608,0.03422382815057283,0.05220715057283143,0.06461327495908348,0.06758169721767594,0.031148971727479866,0,200308,2.34,2.48,1.54,-2.24,2.13,0.07
2003-09,0.010456808823529411,-0.011104549918166938,-0.022115145662847786,-0.016643253682487726,0.05369918790849673,0.04324237908496732,0,200309,-1.24,0.55,0.15,1.0,0.35,0.08
2003-10,0.08420510310965632,0.07716208524590164,0.07931312295081966,0.09940360163934425,0.09989389034369886,0.015688787234042545,0,200310,6.08,2.71,1.97,-1.35,1.54,0.07
2003-11,0.038606434359805514,0.037042199675324676,0.03169059481361426,0.0377056525974026,0.036095542949756886,-0.002510891410048628,0,200311,1.35,2.33,1.78,0.19,1.8,0.07
2003-12,0.04681318314424635,0.029337454545454545,0.01847801298701299,0.02461040422077922,0.03796827154471545,-0.008844911599530901,0,200312,4.29,-2.49,1.61,0.57,0.94,0.08
2004-01,0.029831779742765276,0.027900844051446945,0.03860847266881029,0.04913223954983923,0.11841583118971064,0.08858405144694537,0,200401,2.15,2.45,2.48,-3.67,3.38,0.07
2004-02,0.03401465709728868,0.0221357872,0.009922685303514377,0.0009468194888178912,-0.0093421568,-0.04335681389728868,0,200402,1.4,-0.93,0.91,2.18,-1.21,0.06
2004-03,0.013276809688581312,0.012071724436741768,-0.0020083587521663787,-0.006412663778162912,-0.018632567708333332,-0.03190937739691464,0,200403,-1.32,2.1,0.28,1.56,-0.98,0.09
2004-04,-0.017781704946996466,-0.027293007079646017,-0.03167968727915194,-0.043068545132743365,-0.06332270035460993,-0.04554099540761347,0,200404,-1.83,-2.01,-3.09,3.46,-2.84,0.08
2004-05,0.01147154833040422,0.02260450966608084,0.008445035211267606,0.00866284885764499,-0.012438452464788734,-0.023910000795192954,0,200405,1.17,-0.38,-0.24,-1.18,0.02,0.06
2004-06,0.049744227495908344,0.03925581996726678,0.037494770867430444,0.019559674304418986,0.006692286415711947,-0.043051941080196394,0,200406,1.86,2.56,1.19,1.2,-0.39,0.08
2004-07,-0.0171075808,-0.043803390399999996,-0.07315703200000001,-0.07869875999999999,-0.1299553488,-0.11284776800000001,0,200407,-4.06,-2.95,3.23,5.33,-1.66,0.1
2004-08,0.01145246687697161,-0.0009861261829652997,-0.01962907886435331,-0.024879246056782333,-0.02680810426540284,-0.03826057114237445,0,200408,0.08,-1.16,1.0,1.18,-1.44,0.11
2004-09,0.045068971473851034,0.041108180952380946,0.047828687797147384,0.04568815421303657,0.04263718730158731,-0.0024317841722637235,0,200409,1.6,3.27,-0.01,-1.48,-1.89,0.11
2004-10,0.02472195741324921,0.027561127962085305,0.018499072555205047,0.011496890995260661,0.008280938388625597,-0.01644101902462361,0,200410,1.43,0.19,-0.22,-0.52,0.49,0.11
2004-11,0.07941163297045101,0.07729969626168225,0.06650593302180685,0.08870622897196262,0.08929285046728973,0.00988121749683872,0,200411,4.54,4.11,1.42,-0.59,-0.21,0.15
2004-12,0.03885726234567901,0.031044472952086555,0.038404183925811436,0.050399468315301385,0.0976598825347759,0.058802620189096884,0,200412,3.43,-0.05,-0.22,-1.16,0.46,0.16
2005-01,-0.014880455384615384,-0.02664588153846154,-0.03532866718027735,-0.044328584615384616,-0.07722413692307692,-0.06234368153846154,0,200501,-2.76,-1.18,2.06,2.73,-1.46,0.16
2005-02,0.031634446841294295,0.01533337345679012,0.012306175925925925,0.014373320987654318,-0.011796604006163329,-0.043431050847457624,0,200502,1.89,-0.3,1.53,1.45,-0.05,0.16
2005-03,-0.0048630439024390255,-0.021560515447154472,-0.018063930081300816,-0.029427118699186995,-0.07374783739837398,-0.06888479349593496,0,200503,-1.97,-1.42,2.04,0.47,1.29,0.21
2005-04,-0.05146254391891892,-0.042943820642978005,-0.035130086148648654,-0.058848394247038915,-0.10257533898305085,-0.05111279506413193,0,200504,-2.61,-3.98,0.06,0.97,-0.94,0.21
2005-05,0.06667039123102866,0.06957172128378378,0.05901802871621622,0.048355114864864865,0.05350234010152285,-0.013168051129505816,0,200505,3.65,2.79,-0.64,-1.0,0.3,0.24
2005-06,0.03690529716981132,0.030685233070866146,0.028555637795275587,0.04550037165354331,0.043454546456692916,0.006549249286881595,0,200506,0.57,3.28,2.82,0.97,-0.51,0.23
2005-07,0.06889052868217055,0.05853336801242235,0.05991137054263566,0.06553011335403726,0.085475533437014,0.016585004754843452,0,200507,3.92,2.8,-0.78,-1.22,-0.81,0.24
2005-08,0.001427647058823529,-0.015089430340557278,-0.017519496904024767,-0.014538069659442725,-0.02251486377708978,-0.02394251083591331,0,200508,-1.22,-0.89,1.32,-2.05,0.36,0.3
2005-09,0.010375514774494556,0.0006893878504672905,0.007328822429906542,0.009151258566978194,0.00581818973561431,-0.004557325038880246,0,200509,0.49,-0.35,0.72,0.27,-0.6,0.29
2005-10,-0.01753878052550232,-0.013727098918083463,-0.0213362828438949,-0.03677767851622875,-0.06898618701700154,-0.051447406491499224,0,200510,-2.02,-1.45,0.43,-0.94,-1.3,0.27
2005-11,0.044823958588957054,0.0431444930875576,0.046364309815950924,0.04712126267281106,0.02762394785276073,-0.017200010736196324,0,200511,3.61,0.85,-1.18,-0.74,-1.14,0.31
2005-12,0.003286928462709285,0.0015885494672754942,0.004652721461187215,0.007839707762557078,0.012119216463414633,0.008832288000705348,0,200512,-0.25,-0.21,0.2,0.21,0.23,0.32
2006-01,0.059834668693009116,0.05244353414264036,0.07698106828528073,0.09073551138088011,0.10364419423368741,0.043809525540678296,0,200601,3.04,5.75,1.08,-0.64,-0.46,0.35
2006-02,0.005035980273141122,0.006347854324734448,-0.0045757496206373285,-0.002007455235204856,0.01643748406676783,0.011401503793626706,0,200602,-0.3,-0.42,-0.35,-0.51,1.91,0.34
2006-03,0.04287963651050081,0.038226046925566345,0.03522211812297735,0.035349152350081035,0.05330726655896607,0.01042763004846526,0,200603,1.46,3.4,0.59,0.09,-0.41,0.37
2006-04,0.005291018581081081,0.018231800675675678,-0.004298748735244519,-0.0009120506756756759,-0.0016536661045531208,-0.006944684685634202,0,200604,0.73,-0.84,2.34,1.8,0.01,0.36
2006-05,-0.03008905,-0.04516435666666667,-0.04600089,-0.048000418333333336,-0.08388953589315526,-0.05380048589315526,0,200605,-3.57,-2.85,2.42,1.15,1.46,0.43
2006-06,0.011581660937499998,0.0005232734375000002,-0.0055563239436619725,-0.0098534734375,-0.03600561538461538,-0.047587276322115374,0,200606,-0.35,-0.24,0.85,1.33,-0.07,0.4
2006-07,-0.00900416589861751,-0.021705512307692305,-0.04402276769230769,-0.04034728923076923,-0.06869285692307692,-0.05968869102445941,0,200607,-0.78,-3.64,2.62,1.63,0.9,0.4
2006-08,0.02307533282442748,0.027324487767584102,0.022216004587155964,0.023174825688073393,0.026153156202143944,0.0030778233777164626,0,200608,2.03,0.44,-2.06,-1.86,2.09,0.42
2006-09,0.0157712298325723,0.0188714596651446,0.013397265243902438,0.011499835616438357,-0.0038525312024353113,-0.01962376103500761,0,200609,1.84,-1.46,0.08,0.82,0.6,0.41
2006-10,0.04979657680722891,0.04382189140271493,0.048935312217194576,0.05642342900302115,0.058030512084592145,0.008233935277363234,0,200610,3.23,1.98,-0.3,-0.12,0.28,0.41
2006-11,0.030669094594594593,0.027912671171171168,0.021382367867867867,0.031204521021021028,0.017208030030030033,-0.01346106456456456,0,200611,1.71,0.71,0.14,0.15,-0.81,0.42
2006-12,0.015264743628185909,0.0092876981981982,0.006063872372372372,0.006867498498498497,0.016549353823088454,0.0012846101949025458,0,200612,0.87,-0.82,2.73,-0.72,2.06,0.4
2007-01,0.02142577910447761,0.012280356716417912,0.018230437313432834,0.01990445223880597,0.034926731343283585,0.013500952238805975,0,200701,1.4,0.08,-0.69,0.25,0.38,0.44
2007-02,0.007757618618618618,-0.006728404511278196,0.0021063443609022556,-0.006645007518796992,-0.0021820692771084343,-0.009939687895727052,0,200702,-1.96,1.28,-0.13,-0.51,-0.71,0.38
2007-03,0.019412506269592476,0.009076875981161695,0.007117886970172686,0.006234576138147567,-0.018714266457680255,-0.03812677272727273,0,200703,0.68,0.19,-0.96,0.64,-0.65,0.43
2007-04,0.02366327586206897,0.036272967159277504,0.018899613486842104,0.02450744827586207,0.017801443349753695,-0.005861832512315274,0,200704,3.49,-2.03,-1.46,1.15,1.04,0.44
2007-05,0.04242825864909391,0.041503914049586775,0.038487184818481845,0.03141019801980198,0.003713333333333332,-0.038714925315760575,0,200705,3.24,0.4,-0.65,1.58,-1.36,0.41
2007-06,-0.007314422360248447,-0.008282150855365473,-0.0037026516329704516,-0.008619416796267496,-0.02451951713395639,-0.017205094773707942,0,200706,-1.96,0.75,-1.07,0.53,0.08,0.4
2007-07,-0.043011386748844374,-0.04739698921417566,-0.062087384259259255,-0.06253705392912172,-0.08384551697530865,-0.040834130226464274,0,200707,-3.73,-2.98,-3.72,0.2,-1.13,0.4
2007-08,0.01891349306625578,0.019840473765432097,0.004476947530864197,-0.012635486862442043,-0.05747220955315871,-0.07638570261941449,0,200708,0.92,-0.37,-1.86,-1.21,-0.53,0.42
2007-09,0.017744165137614676,0.016620347094801223,0.03297833486238532,0.014354484709480123,0.004401229357798165,-0.01334293577981651,0,200709,3.22,-2.43,-2.23,-0.52,-3.02,0.32
2007-10,0.02128825493171472,0.014747382978723404,0.027122478723404255,0.016725418569254188,-0.024290679331306995,-0.04557893426302172,0,200710,1.8,-0.03,-3.05,-0.3,-0.09,0.32
2007-11,-0.042755161094224926,-0.06009439269406393,-0.06985205327245053,-0.10042507001522072,-0.13488270624048707,-0.09212754514626215,0,200711,-4.83,-3.01,-0.95,1.89,-0.29,0.34
2007-12,-0.0019449848254931713,-0.007336500758725341,-0.0035933556231003043,-0.010891566009104703,-0.03323185735963581,-0.03128687253414264,0,200712,-0.87,0.15,-0.54,0.87,-1.04,0.27
2008-01,-0.041762065349544075,-0.06539327659574468,-0.07429898936170212,-0.07670269756838904,-0.04680566869300912,-0.005043603343465042,0,200801,-6.36,-0.66,3.98,2.14,2.14,0.21
2008-02,-0.014985934848484846,-0.02871614393939394,-0.03591865506807866,-0.05168803181818182,-0.03974691805766312,-0.02476098320917828,0,200802,-3.09,-0.66,-0.84,0.88,-0.93,0.13
2008-03,-0.004175365930599369,-0.009295372239747635,-0.009593135860979462,-0.01944445425867508,-0.060604335962145116,-0.05642897003154575,0,200803,-0.93,0.56,0.3,0.79,0.5,0.17
2008-04,0.047567537414965985,0.055165325383304945,0.03827122789115646,0.03188969165247019,0.00317616156462585,-0.044391375850340135,0,200804,4.6,-1.14,-1.04,1.63,-2.47,0.18
2008-05,0.05249295689655173,0.04989863965517242,0.048374418965517245,0.03476787931034483,0.027707184482758617,-0.024785772413793112,0,200805,1.86,3.06,-1.49,0.93,-0.06,0.18
2008-06,-0.060892694533762046,-0.08169035852090033,-0.09235122990353697,-0.11776781964573269,-0.14362861414790995,-0.0827359196141479,0,200806,-8.44,1.15,-2.67,4.96,-0.55,0.17
2008-07,0.01704328775834658,0.010039125796178343,0.023216356687898093,0.031104237261146497,0.01647030842607313,-0.0005729793322734496,0,200807,-0.77,3.72,5.42,-1.37,1.08,0.15
2008-08,0.02936737717908082,0.03703053968253968,0.030088586370839936,0.035539074603174604,0.03574101426307449,0.006373637083993668,0,200808,1.53,3.46,1.59,1.86,0.84,0.13
2008-09,-0.08774748177496038,-0.09294274126984127,-0.09187378095238095,-0.09813966031746031,-0.15822582567353408,-0.0704783438985737,0,200809,-9.24,0.25,5.92,2.41,1.78,0.15
2008-10,-0.16215504494382021,-0.20266481089743588,-0.22705161637239166,-0.2721902435897436,-0.2704863108974359,-0.1083312659536157,0,200810,-17.23,-3.34,-2.3,3.04,2.05,0.08
2008-11,-0.06638811235955057,-0.10067036757624398,-0.13257670512820513,-0.1840973231511254,-0.22177355377207061,-0.15538544141252003,0,200811,-7.86,-3.89,-6.31,4.53,2.74,0.03
2008-12,0.03675074478330658,0.05427705457463884,0.0678983065810594,0.05316376404494382,0.04967205296950241,0.012921308186195829,0,200812,1.74,3.29,0.15,0.06,-1.49,0.0
2009-01,-0.07937493699515348,-0.08879005339805825,-0.09317088349514563,-0.08345297249190939,0.022951290791599358,0.10232622778675284,0,200901,-8.12,-2.13,-11.29,0.18,-1.16,0.0
2009-02,-0.10599470016207456,-0.09441712175324675,-0.10872176948051948,-0.14846252759740258,-0.15933539222042137,-0.05334069205834681,0,200902,-10.1,-1.33,-6.95,1.19,-1.02,0.01
2009-03,0.09066018321917808,0.08257533904109589,0.12723211492281303,0.1123250051369863,0.23170486815068492,0.14104468493150685,0,200903,8.95,0.68,3.48,-2.52,-2.24,0.02
2009-04,0.14226619999999998,0.14220920550458716,0.19944766176470588,0.29011585137614676,0.40748440366972477,0.2652182036697248,0,200904,10.18,7.13,5.36,1.31,0.13,0.01
2009-05,0.04645310820895522,0.03909083208955224,0.056019037313432836,0.09491369029850746,0.18281435261194032,0.13636124440298508,0,200905,5.21,-2.32,0.27,-0.78,-2.16,0.0
2009-06,0.01638646206896552,0.026211044827586207,0.027311911917098447,0.032794112068965514,0.04783036551724138,0.03144390344827586,0,200906,0.43,2.29,-2.73,-1.41,-0.33,0.01
2009-07,0.08596960336134453,0.07755684848484848,0.09377115319865319,0.11795015824915825,0.14949804713804712,0.0635284437767026,0,200907,7.72,2.39,4.84,-0.46,3.14,0.01
2009-08,0.03647312769485904,0.014777305140961858,0.03458048006644518,0.028435079601990054,0.15798684577114427,0.12151371807628523,0,200908,3.33,-0.09,7.63,-3.02,3.34,0.01
2009-09,0.052021458193979936,0.051840255852842805,0.06479072742474917,0.06757694983277593,0.09780252341137123,0.045781065217391295,0,200909,4.08,2.73,1.04,1.31,0.35,0.01
2009-10,-0.028653958471760794,-0.038762915141430945,-0.06419962229617304,-0.09569469717138103,-0.10290526245847176,-0.07425130398671097,0,200910,-2.59,-4.93,-4.2,4.17,-1.49,0.0
2009-11,0.042820603618421056,0.036279318481848184,0.0315937215815486,0.012224726523887975,-0.007006294214876031,-0.049826897833297086,0,200911,5.56,-2.68,-0.34,1.0,0.12,0.0
2009-12,0.06069270875420876,0.06853698988195615,0.06780084485666105,0.08715222428330523,0.08035466666666666,0.019661957912457895,0,200912,2.75,6.23,-0.17,1.02,-0.09,0.01
2010-01,-0.025018036423841063,-0.03432867880794702,-0.04174554966887417,-0.03013472350993377,0.03290064059900167,0.05791867702284273,0,201001,-3.36,0.34,0.43,-1.27,0.46,0.0
2010-02,0.04564769529983793,0.0378939724025974,0.04265721753246753,0.04737941396103896,0.034754012987012986,-0.010893682312824941,0,201002,3.4,1.51,3.23,-0.27,1.43,0.0
2010-03,0.08589953001715266,0.0757389261168385,0.07555019415807561,0.08083560137457045,0.09123768213058418,0.005338152113431527,0,201003,6.31,1.85,2.21,-0.65,1.69,0.01
2010-04,0.06164167343173432,0.0536173123844732,0.041675998154981554,0.07119704990757855,0.1152670590405904,0.053625385608856074,0,201004,2.0,4.98,2.89,0.69,1.72,0.01
2010-05,-0.0625235594795539,-0.06449742644320297,-0.07216767657992566,-0.0822777895716946,-0.11922699255121043,-0.056703433071656525,0,201005,-7.89,0.04,-2.44,1.3,-0.22,0.01
2010-06,-0.058214505263157884,-0.059413096660808434,-0.07095220738137084,-0.08550830755711776,-0.1206679525483304,-0.06245344728517252,0,201006,-5.57,-2.47,-4.7,-0.16,-1.55,0.01
2010-07,0.07513590956521739,0.07564959130434783,0.06009083623693381,0.06159452439024389,0.057978151567944246,-0.01715775799727314,0,201007,6.93,0.14,-0.33,0.27,1.98,0.01
2010-08,-0.05632432068965518,-0.054190588946459416,-0.08027429188255612,-0.0795766701208981,-0.10969938514680484,-0.053375064457149665,0,201008,-4.77,-3.13,-1.93,0.58,-1.61,0.01
2010-09,0.13310265397923876,0.11458878546712802,0.11867764471403813,0.11766182352941176,0.12642606585788563,-0.006676588121353133,0,201009,9.54,3.77,-3.18,-0.18,0.36,0.01
2010-10,0.055318025728988,0.04651616151202749,0.04261364432989691,0.036679711340206186,0.03706738936535163,-0.01825063636363637,0,201010,3.88,0.86,-2.51,1.31,-0.33,0.01
2010-11,0.029374614726027398,0.03223299828473413,0.040871262435677534,0.030847622641509434,0.0010617101200686104,-0.028312904605958786,0,201011,0.6,3.64,-0.92,0.38,1.63,0.01
2010-12,0.07340781239242686,0.06930495862068967,0.07324080344827587,0.09570965689655173,0.138191207253886,0.06478339486145915,0,201012,6.82,0.99,3.76,-3.52,3.21,0.01
2011-01,0.013109246551724137,0.005480222797927463,0.002872055267702936,0.0093176804835924,0.01861741868512111,0.005508172133396973,0,201101,1.99,-2.38,0.75,-0.65,0.77,0.01
2011-02,0.05119477186963979,0.04060152233676976,0.049000998284734136,0.04694099484536082,0.04250297598627788,-0.008691795883361914,0,201102,3.49,1.65,1.27,-1.93,0.87,0.01
2011-03,0.012172449016100179,0.023536536672629695,0.028603865831842577,0.022142896243291594,0.007736270609318996,-0.004436178406781182,0,201103,0.46,2.63,-1.85,1.8,-0.05,0.01
2011-04,0.02535015619047619,0.03650351145038168,0.02891634541984733,0.01496606679389313,0.007682463740458017,-0.017667692450018174,0,201104,2.9,-0.5,-2.49,1.11,-0.86,0.0
2011-05,-0.008997297872340425,-0.00235327659574468,-0.015570943907156675,-0.029057423597678916,-0.0339285019379845,-0.02493120406564408,0,201105,-1.27,-0.71,-2.0,1.91,-1.5,0.0
2011-06,-0.011945466546112116,-0.012327282608695653,-0.015535326086956522,-0.027727398550724636,-0.05704470471014493,-0.045099238164032815,0,201106,-1.75,0.13,-0.39,2.43,-1.51,0.0
2011-07,-0.022821426523297487,-0.03366658886894076,-0.0377890770609319,-0.03463340754039497,-0.03974239068100358,-0.016920964157706095,0,201107,-2.35,-1.2,-0.9,2.68,-1.82,0.0
2011-08,-0.06433702673796793,-0.07375897678571428,-0.0893901232142857,-0.10354013928571429,-0.14605901782531194,-0.08172199108734401,0,201108,-5.99,-3.2,-2.36,3.3,-0.38,0.01
2011-09,-0.09612308896797153,-0.09739881850533809,-0.10865768449197862,-0.11776346607142857,-0.1433849412811388,-0.04726185231316726,0,201109,-7.59,-3.65,-1.72,2.04,0.26,0.0
2011-10,0.15506909219858156,0.14330617939609236,0.15343616873889876,0.13487360390763767,0.12244465008880996,-0.0326244421097716,0,201110,11.35,3.46,0.1,-2.16,-0.86,0.0
2011-11,0.004371670774647889,0.0016432482394366202,-0.008807825704225352,-0.01802033978873239,-0.06145487147887325,-0.06582654225352114,0,201111,-0.28,-0.27,-0.45,1.86,1.49,0.0
2011-12,0.017412542253521127,0.006746297535211268,-0.0015819577464788728,-0.003078112676056338,-0.009185883597883599,-0.026598425851404726,0,201112,0.74,-0.33,1.63,0.98,2.51,0.0
2012-01,0.09149930633802818,0.06081620282186949,0.06497069366197182,0.07604301058201059,0.13436954225352113,0.04287023591549295,0,201201,5.05,2.05,-0.97,-2.01,-1.43,0.0
2012-02,0.03416128471001757,0.02519602112676056,0.03337392091388401,0.04105847007042253,0.05806988927943761,0.02390860456942004,0,201202,4.42,-1.7,0.43,-0.48,-0.01,0.0
2012-03,0.031211628884826325,0.02924992870201097,0.03215310603290676,0.028444285191956124,0.02430120109689214,-0.006910427787934183,0,201203,3.11,-0.47,1.14,-0.54,0.74,0.0
2012-04,-0.015692119922630556,0.006061786821705427,-0.00919416472868217,-0.028557583333333334,-0.04112226885880077,-0.025430148936170214,0,201204,-0.85,-0.55,-0.78,1.3,0.65,0.0
2012-05,-0.05893547001934235,-0.048794211240310074,-0.061997100775193804,-0.08747416666666666,-0.09645528875968992,-0.03751981874034757,0,201205,-6.19,-0.12,-1.06,2.08,2.32,0.01
2012-06,0.04685960805860806,0.04237200183486239,0.03775028256880734,0.04878606972477065,0.04892370695970696,0.002064098901098897,0,201206,3.89,0.84,0.62,-1.09,0.46,0.0
2012-07,0.009948840579710145,-0.001128577898550725,-0.01834903266787659,-0.017859,-0.021307545289855075,-0.03125638586956522,0,201207,0.79,-2.8,-0.02,1.1,0.09,0.0
2012-08,0.03763215342960289,0.03805194043321299,0.032246900542495474,0.02568942779783394,0.021613866425992778,-0.01601828700361011,0,201208,2.55,0.45,1.3,-1.33,-0.86,0.01
2012-09,0.03448833633093525,0.028501277477477476,0.031840271582733816,0.04502281081081081,0.05869674100719424,0.02420840467625899,0,201209,2.73,0.61,1.6,-1.49,1.54,0.01
2012-10,-0.0029608057553956843,-0.00798312972972973,-0.01904904684684685,-0.03264041621621622,-0.0554128,-0.05245199424460431,0,201210,-1.76,-0.9,3.59,-1.34,2.51,0.01
2012-11,0.01457514847942755,0.014524032258064515,0.012096874551971325,0.005122137992831541,-0.00549096243291592,-0.02006611091234347,0,201211,0.78,0.47,-0.84,0.6,0.84,0.01
2012-12,0.03404747763864043,0.029890430107526882,0.028372863799283155,0.028501833333333334,0.028427533094812163,-0.005619944543828269,0,201212,1.18,1.91,3.51,-1.85,0.88,0.01
2013-01,0.07707310892857142,0.06650650714285715,0.06066167321428571,0.06349504464285714,0.09294176785714285,0.015868658928571436,0,201301,5.57,0.47,0.96,-1.93,1.42,0.0
2013-02,0.024207166371681417,0.010337015957446807,0.01653915425531915,0.01084056560283688,-0.0017993787610619456,-0.026006545132743364,0,201302,1.29,-0.25,0.11,-0.67,0.54,0.0
2013-03,0.04961284065934066,0.04296093211009174,0.04945938348623854,0.044688411009174304,0.05019015412844037,0.0005773134690997134,0,201303,4.03,0.86,-0.19,0.14,1.37,0.0
2013-04,0.008170646153846153,0.005283582692307692,0.004357094230769231,-0.007148911538461537,-0.009560936660268714,-0.01773158281411487,0,201304,1.55,-2.25,0.45,0.27,0.37,0.0
2013-05,0.05341131334622823,0.03903361434108527,0.03925573449612403,0.060656670542635654,0.05947132688588007,0.00606001353965184,0,201305,2.8,2.09,2.63,-1.97,-0.91,0.0
2013-06,0.004555532467532467,-0.005417297397769518,0.0023552881040892187,0.0050867806691449816,-0.01270932527881041,-0.017264857746342878,0,201306,-1.2,1.56,0.03,-0.38,0.01,0.0
2013-07,0.08732647601476015,0.06693406654343807,0.0627605258302583,0.06712622365988909,0.0926634926199262,0.005337016605166042,0,201307,5.65,1.8,0.57,-1.35,0.52,0.0
2013-08,-0.025831310661764705,-0.02870490791896869,-0.024578183823529415,-0.020536581952117865,-0.03678330147058824,-0.010951990808823534,0,201308,-2.71,-0.06,-2.69,0.66,-2.16,0.0
2013-09,0.050817223443223446,0.054627398165137606,0.0586594,0.06603688990825687,0.06913935897435898,0.018322135531135535,0,201309,3.77,2.66,-1.22,-0.58,-1.4,0.0
2013-10,0.038104357664233576,0.04125099635036496,0.033024201096892136,0.019181399635036494,-0.00630448722627737,-0.044408844890510946,0,201310,4.18,-1.51,1.25,2.78,0.92,0.0
2013-11,0.05188613200723327,0.04146164195298373,0.038100434782608696,0.031146016274864376,0.06111721699819168,0.009231084990958406,0,201311,3.13,1.4,0.32,0.14,0.05,0.0
2013-12,0.02220652688172043,0.02337458168761221,0.025537078994614004,0.02813677019748654,0.05161523783783784,0.029408710956117412,0,201312,2.81,-0.44,-0.02,-0.46,0.08,0.0
2014-01,-0.03239978113879004,-0.03503039393939394,-0.03631933689839573,-0.0037541301247771834,0.04986651601423488,0.08226629715302491,0,201401,-3.32,0.58,-2.07,-3.88,-1.43,0.0
2014-02,0.050495446996466437,0.043924781305114645,0.048499126984126985,0.044843342151675486,0.05954225220458554,0.009046805208119103,0,201402,4.65,0.16,-0.31,-0.23,-0.47,0.0
2014-03,0.01657565265082267,-0.003729173674588666,0.0018784450549450553,-0.005097504570383912,-0.028411802559414993,-0.04498745521023766,0,201403,0.43,-1.13,4.93,2.13,1.98,0.0
2014-04,-0.027875349904397707,-0.02609904214559387,-0.02944043103448276,-0.04345061302681992,-0.0665660057581574,-0.03869065585375969,0,201404,-0.19,-4.14,1.17,3.48,1.04,0.0
2014-05,0.018653625719769674,0.020065980806142036,0.010780930902111324,-0.003528767754318618,-0.019552930902111323,-0.038206556621880994,0,201405,2.06,-1.89,-0.13,0.05,-1.01,0.0
2014-06,0.03740327240143369,0.03989022222222222,0.04813378096947935,0.0620775358422939,0.07740923518850988,0.04000596278707619,0,201406,2.61,3.1,-0.7,-1.89,-1.98,0.0
2014-07,-0.02910704225352113,-0.040015978835978835,-0.04661385185185185,-0.06637675485008818,-0.08854924691358025,-0.05944220466005912,0,201407,-2.04,-4.29,0.03,0.88,0.51,0.0
2014-08,0.051992609075043626,0.042923080419580414,0.04662199650349651,0.04458130594405594,0.028157627622377626,-0.023834981452666,0,201408,4.24,0.31,-0.45,-0.63,-0.69,0.0
2014-09,-0.0346147530647986,-0.03805157894736842,-0.04927276842105263,-0.05484674385964912,-0.08405736777583188,-0.04944261471103328,0,201409,-1.97,-3.73,-1.34,1.31,-0.49,0.0
2014-10,0.06577058885017421,0.05443422299651567,0.048660467713787084,0.03570717247386759,-0.010816982578397213,-0.07658757142857142,0,201410,2.52,3.72,-1.81,-0.55,-0.09,0.0
2014-11,0.010349641379310345,0.018932462867012088,0.005145018965517242,-0.005617233160621762,-0.03418546896551724,-0.044535110344827586,0,201411,2.55,-2.28,-3.09,1.5,0.26,0.0
2014-12,0.023524690189328745,0.02503257931034483,0.0184454,0.027648394827586204,0.021009748275862074,-0.00251494191346667,0,201412,-0.06,2.86,2.27,-1.22,0.96,0.0
2015-01,-0.04799415582191781,-0.033970077054794524,-0.03690093150684932,-0.045582327054794515,-0.01890628082191781,0.029087875,0,201501,-3.11,-0.91,-3.58,1.6,-1.66,0.0
2015-02,0.07711604414261461,0.05808878268251273,0.06372339558573854,0.06757083361629881,0.08659023089983023,0.009474186757215619,0,201502,6.13,0.31,-1.86,-1.1,-1.79,0.0
2015-03,0.012427948214285715,0.015548483005366726,0.012441531305903399,0.002597094812164579,-0.015502182142857143,-0.027930130357142858,0,201503,-1.12,3.07,-0.37,0.09,-0.51,0.0
2015-04,-0.011781432637571157,-0.00751745247148289,-0.009421981024667932,-0.013972323193916348,0.007323166982922199,0.019104599620493358,0,201504,0.59,-3.06,1.82,0.02,-0.65,0.0
2015-05,0.024216528735632188,0.019215525911708255,0.01620946641074856,0.01904763915547025,-0.0008813697318007671,-0.025097898467432954,0,201505,1.36,0.82,-1.14,-1.78,-0.72,0.0
2015-06,-0.0019068380782918148,0.005262406417112299,0.011239021352313167,0.0029282014260249545,-0.007430521352313167,-0.005523683274021352,0,201506,-1.53,2.89,-0.79,0.45,-1.57,0.0
2015-07,-0.005550207746478873,-0.002800100352112676,-0.0059899735449735455,-0.03676667429577465,-0.07614527464788733,-0.07059506690140846,0,201507,1.54,-4.58,-4.13,0.31,-2.46,0.0
2015-08,-0.03672106479859895,-0.04821069176882663,-0.05804809632224169,-0.06897302977232925,-0.0349765639229422,0.0017445008756567515,0,201508,-6.04,0.24,2.77,0.69,1.24,0.0
2015-09,-0.02644497382198953,-0.03212669230769231,-0.046322363636363634,-0.08999585489510488,-0.1249254746945899,-0.09848050087260037,0,201509,-3.07,-2.8,0.56,1.8,-0.6,0.0
2015-10,0.08741632352941177,0.05440811611785096,0.05263541594454073,0.04384504159445407,0.04193832871972319,-0.04547799480968858,0,201510,7.75,-2.05,-0.46,0.86,0.55,0.0
2015-11,0.025632304273504276,0.026883560683760684,0.021640383561643835,0.03413664615384615,0.021744421232876714,-0.003887883040627562,0,201511,0.56,3.29,-0.42,-2.71,-1.03,0.0
2015-12,-0.04393692307692308,-0.03730967808219178,-0.04453291609589041,-0.04650893150684932,-0.07635833732876714,-0.032421414251844055,0,201512,-2.17,-2.97,-2.61,0.45,0.03,0.01
2016-01,-0.07007743389830509,-0.05383424278438031,-0.0756662559322034,-0.13619406281833618,-0.16275186610169493,-0.09267443220338983,0,201601,-5.77,-3.48,2.09,2.8,3.07,0.01
2016-02,0.03171997306397306,0.010583870151770657,0.001976636363636363,-0.011048382799325464,-0.02585434343434343,-0.05757431649831649,0,201602,-0.07,0.85,-0.57,3.28,1.99,0.02
2016-03,0.08715833687943263,0.06487231914893617,0.07946205506216696,0.08740755141843973,0.14121607269503547,0.054057735815602845,0,201603,6.96,1.08,1.19,0.76,-0.04,0.02
2016-04,0.012241295238095237,0.022990228571428573,0.026189057251908395,0.033829314285714285,0.08096225142857143,0.06872095619047619,0,201604,0.91,1.22,3.28,-2.92,1.86,0.01
2016-05,0.02150602895752896,0.02203758800773694,0.021267719535783366,0.0011450290135396521,-0.026740932432432432,-0.04824696138996139,0,201605,1.78,-0.62,-1.66,-1.07,-2.49,0.01
2016-06,-0.01822602169981917,-0.0023424736842105258,-0.00464729347826087,-0.0025353913043478257,-0.03802644384057971,-0.01980042214076054,0,201606,-0.05,0.44,-1.48,1.39,1.91,0.02
2016-07,0.06814732972972973,0.04321182162162161,0.04613319855595668,0.06485864504504504,0.053302572972972966,-0.014844756756756762,0,201607,3.95,2.49,-1.27,1.25,-1.19,0.02
2016-08,0.03861899102333932,0.01138413489208633,0.008218472172351884,0.018614147482014388,0.03331862836624776,-0.005300362657091565,0,201608,0.49,1.7,3.13,-1.88,-0.34,0.02
2016-09,0.009441450628366247,0.0013417158273381295,0.005353215439856372,0.028232888489208633,0.055483116696588876,0.04604166606822263,0,201609,0.25,1.86,-1.23,-2.23,0.03,0.02
2016-10,-0.015145691071428574,-0.01962545714285714,-0.04247297142857143,-0.0692441375,-0.12501961964285715,-0.10987392857142858,0,201610,-2.02,-4.04,4.12,0.96,0.28,0.02
2016-11,0.13249907295373664,0.09800242245989305,0.09014295907473309,0.09184867557932264,0.06324064946619218,-0.06925842348754446,0,201611,4.86,7.04,8.19,-0.21,3.69,0.01
2016-12,0.043235281639928694,0.03221485026737968,0.023129466071428573,0.0033769197860962566,-0.019968064285714286,-0.06320334592564297,0,201612,1.81,0.39,3.56,1.23,-0.22,0.03
2017-01,0.00820370515097691,0.002743626998223801,0.006649620996441281,0.01370713321492007,0.0408760568383659,0.03267235168738899,0,201701,1.94,-1.43,-2.76,-0.5,-0.99,0.04
2017-02,0.020809047619047616,0.025024505300353356,0.019156194003527336,0.011405549469964665,0.03437786772486772,0.013568820105820105,0,201702,3.57,-2.21,-1.68,0.45,-1.83,0.04
2017-03,0.007288956442831215,0.011860194545454547,-0.00610849090909091,0.0022811566484517314,0.029529436363636363,0.022240479920805148,0,201703,0.17,0.74,-3.32,0.62,-0.94,0.03
2017-04,0.005413999999999999,0.02138808070866142,0.015447535433070867,0.007825251968503939,-0.039320080708661415,-0.04473408070866142,0,201704,1.09,0.47,-2.1,1.91,-1.6,0.05
2017-05,-0.011946039682539683,0.006155534791252485,-0.013950583333333334,-0.023682572564612328,-0.04690147817460317,-0.034955438492063486,0,201705,1.06,-3.03,-3.78,0.95,-1.81,0.06
2017-06,0.04089816851851852,0.02806656586270872,0.019173205936920224,0.02416874953617811,0.06991403525046383,0.02901586673194531,0,201706,0.78,2.57,1.48,-2.25,0.01,0.06
2017-07,0.011348544280442805,0.007475595194085028,0.011038813308687613,0.0017764824399260633,-0.016547841035120147,-0.027896385315562953,0,201707,1.87,-1.66,-0.24,-0.69,-0.11,0.07
2017-08,-0.011916291208791209,-0.010193585321100918,-0.012203798165137614,-0.01494257431192661,-0.012030978021978025,-0.00011468681318681576,0,201708,0.16,-1.83,-2.09,0.15,-2.37,0.09
2017-09,0.06687314936247724,0.05579540437158469,0.055441551912568304,0.06644448998178505,0.1250465428051002,0.058173393442622956,0,201709,2.51,4.77,3.12,-1.46,1.67,0.09
2017-10,0.011099967509025272,0.018785415913200723,0.01659340579710145,-0.004927390596745026,-0.03438778700361011,-0.045487754512635384,0,201710,2.25,-1.93,0.21,0.92,-3.24,0.09
2017-11,0.049044070270270274,0.04157227075812273,0.026871655855855856,0.02950434296028881,0.025374309909909912,-0.02366976036036036,0,201711,3.12,-0.36,-0.08,3.19,-0.08,0.08
2017-12,0.007908598920863309,-0.0060836546762589915,0.0030583333333333326,0.013436606115107913,0.011627372302158273,0.0037187733812949642,0,201712,1.06,-1.07,0.05,0.75,1.67,0.09
2018-01,0.031838348837209304,0.02795853405017921,0.02930378711985689,0.03594728136200717,0.03818527728085868,0.006346928443649376,0,201801,5.57,-3.2,-1.33,-0.73,-1.01,0.12
2018-02,-0.038698391459074735,-0.03779977183600713,-0.03634726559714795,-0.03058755614973262,-0.04603449466192171,-0.007336103202846972,0,201802,-3.65,0.31,-1.07,0.54,-2.39,0.11
2018-03,0.01747557012750455,0.013506390510948903,0.008338435336976322,-0.0020451021897810217,0.0027973460837887073,-0.014678224043715844,0,201803,-2.35,3.58,-0.23,-0.45,0.0,0.11
2018-04,-0.0006393398821218073,0.015696369351669938,0.004352286836935166,0.0052924950884086445,0.007653047151277015,0.008292387033398822,0,201804,0.28,0.93,0.54,-2.43,1.27,0.14
2018-05,0.05579265551181103,0.06118852268244576,0.05123159960552268,0.04633514792899408,0.06691139842209073,0.011118742910279707,0,201805,2.65,4.74,-3.18,-2.05,-1.47,0.14
2018-06,0.007690545794392522,0.006224282242990654,0.013142252336448598,0.02775705046728972,-0.01422877861163227,-0.021919324406024794,0,201806,0.48,0.81,-2.33,0.78,0.24,0.14
2018-07,0.023990831792975974,0.02847281851851852,0.015677496296296296,0.009222779629629632,-0.03314607962962963,-0.0571369114226056,0,201807,3.19,-1.93,0.47,1.56,0.35,0.16
2018-08,0.020414622710622714,0.02512852380952381,0.053815622710622714,0.05972333882783882,0.04690572344322345,0.026491100732600734,0,201808,3.44,0.63,-3.98,-0.3,-2.66,0.16
2018-09,-0.021212224452554745,-0.020774460837887067,-0.009455290145985402,-0.019663795992714027,-0.00799203460837887,0.013220189844175875,0,201809,0.06,-2.49,-1.69,0.64,1.3,0.15
2018-10,-0.07912164028776977,-0.08638451618705037,-0.10604819639639639,-0.13144344964028778,-0.1592085765765766,-0.08008693628880684,0,201810,-7.68,-4.46,3.44,0.94,3.6,0.19
2018-11,0.021240253119429592,0.026072235714285717,0.012026424999999999,-0.00991521964285714,-0.03747664642857143,-0.05871689954800102,0,201811,1.69,-0.77,0.28,-0.56,0.36,0.18
2018-12,-0.11788695187165775,-0.1046823368983957,-0.10677634642857142,-0.12392936720142601,-0.20968270409982173,-0.09179575222816398,0,201812,-9.57,-2.87,-1.85,-0.03,0.22,0.2
2019-01,0.12807997711267605,0.09703838447971781,0.09985773544973546,0.12803260670194003,0.24925507042253525,0.1211750933098592,0,201901,8.4,3.02,-0.46,-0.78,-1.51,0.21
2019-02,0.05059893193717278,0.04788168411867364,0.05385567421602787,0.0581018184991274,0.08295045296167249,0.03235152102449971,0,201902,3.4,1.74,-2.67,0.12,-1.6,0.18
2019-03,-0.018242158645276296,-0.012405757575757575,-0.01585678966131907,-0.020563725490196076,-0.0038481443850267344,0.014394014260249562,0,201903,1.1,-3.5,-4.1,0.9,-0.96,0.19
2019-04,0.04496334724857685,0.0368027927756654,0.04128207414448669,0.029367184761904763,-0.006578620493358635,-0.05154196774193548,0,201904,3.97,-1.17,2.14,1.62,-2.2,0.21
2019-05,-0.08036683558994198,-0.045367932170542635,-0.07313427325581395,-0.09616192829457364,-0.12326943907156672,-0.04290260348162474,0,201905,-6.94,-1.58,-2.35,-0.47,1.76,0.21
2019-06,0.0781609012797075,0.0798013827838828,0.07505764285714285,0.060782054945054946,0.02284889213893967,-0.05531200914076782,0,201906,6.93,0.36,-0.72,0.91,-0.43,0.18
2019-07,0.01575452622061483,0.010264338155515371,0.008611567028985507,-0.01991490235081374,-0.05546124412296563,-0.07121577034358045,0,201907,1.19,-1.78,0.47,-0.07,0.37,0.19
2019-08,-0.058592264388489204,-0.03748155135135135,-0.03854105575539568,-0.07827909729729729,-0.06803092625899279,-0.009438661870503587,0,201908,-2.58,-3.23,-4.77,0.55,-0.69,0.16
2019-09,0.0645754973262032,0.037670137500000006,0.004029978609625669,0.005396492857142857,0.007583237076648839,-0.05699226024955436,0,201909,1.43,0.27,6.74,1.84,3.36,0.18
2019-10,0.022424871704745167,0.021069328646748684,0.006038714788732393,0.005305147627416521,-0.04864666432337434,-0.07107153602811951,0,201910,2.06,0.27,-1.92,0.44,-0.96,0.16
2019-11,0.0394854055944056,0.03561515411558669,0.04044184413309983,0.07536129422066551,0.03951318356643357,2.7777972027964726e-05,0,201911,3.87,0.45,-2.0,-1.6,-1.25,0.12
2019-12,0.044579736013986015,0.030975176573426577,0.02102036363636364,0.05504401748251748,0.11073713660245184,0.06615740058846582,0,201912,2.77,0.97,1.77,0.0,1.23,0.14
2020-01,-0.06221194947735192,-0.030453360627177704,-0.010984630017452007,-0.030307083769633508,0.012173770034843205,0.07438571951219512,0,202001,-0.11,-4.38,-6.23,-1.17,-2.32,0.13
2020-02,-0.10377317534722222,-0.09217664124783363,-0.07532495833333333,-0.06345955979202773,-0.05885309375,0.04492008159722222,0,202002,-8.13,0.04,-3.79,-1.47,-2.51,0.12
2020-03,-0.21040795914742455,-0.17498592170818503,-0.2071031103202847,-0.2866765943060498,-0.2735569644128114,-0.06314900526538686,0,202003,-13.39,-8.3,-13.95,-1.52,1.26,0.13
2020-04,0.17501873244781782,0.13664793916349807,0.1551262319391635,0.20248858935361216,0.3277832794676806,0.15276454701986278,0,202004,13.65,2.58,-1.26,2.71,-1.01,0.0
2020-05,0.10085998664122138,0.0859732963671128,0.06570552963671128,0.049552881453154875,0.11339491778202676,0.01253493114080538,0,202005,5.58,1.97,-4.89,0.96,-3.25,0.01
2020-06,0.045778329690346085,0.02045304197080292,0.036974413479052816,0.04712877737226277,0.12114297085610198,0.07536464116575589,0,202006,2.46,1.97,-2.17,0.09,0.53,0.01
2020-07,0.024801205405405403,0.0445637981981982,0.0499965036101083,0.005452778378378379,0.07980862522522522,0.05500741981981982,0,202007,5.77,-3.2,-1.37,0.4,0.96,0.01
2020-08,0.0598213375,0.04270385357142857,0.04485826654740608,0.06758871785714286,0.04931300357142857,-0.01050833392857143,0,202008,7.63,-0.89,-2.96,4.26,-1.2,0.01
2020-09,-0.03209767023172906,-0.033689949999999996,-0.02867073035714286,-0.02752059464285714,-0.03341185026737968,-0.0013141800356506195,0,202009,-3.63,0.01,-2.68,-1.39,-1.89,0.01
2020-10,0.06388783568904595,0.02042199116607774,0.006691261946902655,0.004651807420494701,-0.04759900883392227,-0.11148684452296823,0,202010,-2.1,4.64,4.22,-0.75,-0.76,0.01
2020-11,0.19010083566433564,0.140045176882662,0.1422019265734266,0.24611265674255692,0.3207015227272727,0.13060068706293707,0,202011,12.47,7.12,2.13,-2.2,1.37,0.01
2020-12,0.08567616493055556,0.057759210434782604,0.07087912326388889,0.0942250956521739,0.15594917534722225,0.07027301041666668,0,202012,4.63,4.79,-1.5,-1.99,-0.11,0.01
2021-01,0.0544712027491409,0.019612020618556703,0.01939027491408935,0.08765299828178695,0.28931734655172414,0.23484614380258323,0,202101,-0.03,6.92,2.97,-3.81,4.9,0.01
2021-02,0.11765866383701187,0.06567651782682513,0.05673154499151103,0.07211185398981325,0.13079466723259764,0.013136003395585766,0,202102,2.78,4.53,7.17,0.31,-1.94,0.0
2021-03,0.06709488157894736,0.024479274406332453,-0.03989326385224274,-0.029903926121372028,-0.042303013192612135,-0.10939789477155949,0,202103,3.08,-0.86,7.39,6.47,3.41,0.0
2021-04,0.02317387162162162,0.030187810810810817,0.002407925170068029,-0.03636655405405405,-0.05008680405405406,-0.07326067567567568,0,202104,4.93,-3.15,-0.95,2.49,-2.69,0.0
2021-05,0.030908070000000003,0.019038575757575758,0.01463646,-0.019048202020202017,0.0029888989898989885,-0.027919171010101013,0,202105,0.29,1.23,7.09,2.53,3.01,0.0
2021-06,-0.021397067961165042,-0.01398671650485437,0.015228250485436893,0.051969353398058256,0.06179187961165048,0.08318894757281553,0,202106,2.75,-0.34,-7.83,-2.18,-0.95,0.0
2021-07,-0.015338501742160279,-0.00913590243902439,0.0010081271777003487,-0.07408903484320559,-0.12772537630662023,-0.11238687456445995,0,202107,1.27,-4.63,-1.78,5.5,-0.52,0.0
2021-08,0.026742753424657532,0.021151539383561648,0.01442299828767123,0.017939659246575344,0.04589847512864494,0.01915572170398741,0,202108,2.91,-0.68,-0.15,-0.3,-1.79,0.0
2021-09,-0.009004678373382624,-0.02724901109057301,-0.0428190314232902,-0.03868547319778188,-0.03033766543438078,-0.021332987060998156,0,202109,-4.37,1.13,5.09,-1.9,2.11,0.0
2021-10,0.041893621848739494,0.04453836806722689,0.04670205387205387,0.022386084033613446,-0.038696623529411764,-0.08059024537815127,0,202110,6.65,-2.7,-0.49,1.69,-1.45,0.0
2021-11,-0.01815577049180328,-0.022302656814449918,-0.04433278360655738,-0.10057898357963875,-0.13403034975369457,-0.11587457926189129,0,202111,-1.55,-1.77,-0.45,7.22,1.72,0.0
2021-12,0.04580812522361359,0.05141485304659498,0.04237873524150269,-0.029723917562724016,-0.08206523297491039,-0.12787335819852397,0,202112,3.1,-0.77,3.26,4.92,4.4,0.01
