rankdate,1,2,3,4,5,LS,cons,Date,Mkt-RF,SMB,HML,RMW,CMA,RF
1986-02,0.08579930107870141,0.07569027381254248,0.08513267409368767,0.0843575609173782,0.0695441694199058,-0.01625513165879562,0,198602,7.13,-0.71,-0.72,1.06,-1.2,0.53
1986-03,0.07794176631379165,0.05283847105966359,0.06040274447092415,0.06053856770196407,0.016208229276637474,-0.06173353703715418,0,198603,4.88,-0.66,-0.39,1.21,0.92,0.6
1986-04,0.003328900491802033,-0.0030029969596772296,-0.00242935034189018,-0.016453890997678425,-0.02291906078691077,-0.026247961278712803,0,198604,-1.31,2.84,-2.87,2.91,0.03,0.52
1986-05,0.04358727577987674,0.04751830661938714,0.07090039855218766,0.052695691882089224,0.041428827583204764,-0.0021584481966719776,0,198605,4.62,-1.29,-0.21,2.13,1.08,0.49
1986-06,0.03440971255530159,0.013986696327146638,0.025544101883817432,0.010385971099644262,-0.03471715362726098,-0.06912686618256257,0,198606,1.03,-0.89,1.28,1.8,0.87,0.52
1986-07,-0.00790482274578887,-0.06437105227783976,-0.061650086473531894,-0.07870721693077644,-0.1262256489291678,-0.11832082618337893,0,198607,-6.45,-3.46,4.7,-0.54,0.84,0.52
1986-08,0.07407021463655311,0.07264050863077061,0.07376322165170666,0.07950197865942078,0.10868070131455768,0.034610486678004565,0,198608,6.07,-4.35,3.51,-1.66,3.21,0.46
1986-09,-0.07890300287094977,-0.0925859641100946,-0.07762209252614527,-0.06538381125143448,-0.04582914857341224,0.03307385429753753,0,198609,-8.6,2.05,3.22,-0.08,3.71,0.45
1986-10,0.057806669794032685,0.05243399732861075,0.07313160424113987,0.06662559405461509,0.06798412923960388,0.010177459445571198,0,198610,4.66,-2.33,-1.42,-0.05,1.0,0.46
1986-11,0.021668339760086676,0.030105334290256806,0.017203585154874634,0.014246768061590545,0.015013130059976868,-0.006655209700109807,0,198611,1.17,-1.88,-0.07,1.09,0.67,0.39
1986-12,-0.026920423573718048,-0.023133220128487904,-0.02034249015269504,-0.02694746473588709,-0.037366908819949037,-0.010446485246230989,0,198612,-3.27,0.12,0.36,0.79,0.09,0.49
1987-01,0.12795371737512573,0.12447892054322168,0.16237326649399494,0.15304981281860192,0.1613925700400131,0.03343885266488736,0,198701,12.47,-1.54,-3.16,0.17,-1.0,0.42
1987-02,0.014958374400315742,0.06793856070800958,0.05643021212532823,0.0607384137104855,0.07257621538546191,0.05761784098514617,0,198702,4.39,3.4,-5.91,-0.76,-2.66,0.43
1987-03,0.016791829823986783,0.04745319511059199,0.026984053562120386,0.01567711923975046,0.03283752239622455,0.016045692572237764,0,198703,1.64,0.28,1.61,1.36,4.14,0.47
1987-04,-0.017355503542991698,7.285669237342635e-05,-0.0027186463834715,-0.027629377971476292,-0.024583771865265246,-0.007228268322273548,0,198704,-2.11,-1.54,-0.39,-0.49,1.05,0.44
1987-05,0.011875326092173216,0.010639076263306147,0.0006380196301670627,0.010890387129411459,0.024738881085267173,0.012863554993093957,0,198705,0.11,-0.56,0.23,0.51,1.14,0.38
1987-06,0.04805972134208223,0.051572010397673076,0.052800648017092486,0.044673017691671486,0.039826187624037473,-0.008233533718044757,0,198706,3.94,-2.21,1.04,1.7,0.84,0.48
1987-07,0.04983623505840878,0.039023410242522615,0.06053620823434367,0.03535011507686787,0.06010838660236024,0.01027215154395146,0,198707,3.85,-1.14,0.68,-0.61,1.61,0.46
1987-08,0.04464624736867743,0.05262843982111035,0.0487981252545064,0.03490448668767551,0.030718046575606214,-0.013928200793071215,0,198708,3.52,-0.94,-0.93,2.04,-1.61,0.47
1987-09,-0.01797323629747388,-0.019501505972070867,-0.011838269678769294,-0.028136777762449848,-0.009292611001603954,0.008680625295869925,0,198709,-2.59,0.38,0.27,-0.97,1.87,0.45
1987-10,-0.19373542650140477,-0.2324792600671602,-0.17409032827391338,-0.20654786538102532,-0.2661864528534467,-0.07245102635204195,0,198710,-23.24,-8.07,4.24,2.04,2.34,0.6
1987-11,-0.08029098226758204,-0.06323642460681166,-0.05647358192044548,-0.06120337379431242,-0.0628380591189114,0.01745292314867064,0,198711,-7.77,2.85,2.95,-1.88,0.68,0.35
1987-12,0.06976037382460648,0.08612275606018649,0.10106977292434646,0.10132878723261997,0.041297225089457344,-0.028463148735149137,0,198712,6.81,0.06,-4.43,2.96,-2.42,0.39
1988-01,0.0710575958945933,0.027051177554535472,0.014615966924623532,0.07647006891455248,0.12098036119540971,0.04992276530081641,0,198801,4.21,-0.51,5.01,-1.14,2.13,0.29
1988-02,0.03827948418677375,0.047128123805152904,0.07648640699637006,0.08434917884056235,0.08983194434931213,0.05155246016253838,0,198802,4.75,3.32,-1.71,1.56,-0.01,0.46
1988-03,-0.022402718739074717,-0.028467853504499853,-0.02665924782637219,-0.017204131075876324,-0.011145022101653853,0.011257696637420864,0,198803,-2.27,6.25,0.73,-0.25,1.8,0.44
1988-04,0.001245007206630864,0.022548712187795625,0.005414535432392945,0.0026796456782644472,0.017871570201823443,0.01662656299519258,0,198804,0.56,1.16,1.67,-0.2,1.92,0.46
1988-05,-0.001494378831626747,0.003772226583708453,0.009586388641533942,0.007068475821967556,0.04975873070872338,0.051253109540350124,0,198805,-0.29,-2.56,2.42,-0.74,0.33,0.51
1988-06,0.048105330949754936,0.06357853583437573,0.044929853250846905,0.0899701441209227,0.09119129731443126,0.04308596636467633,0,198806,4.79,2.16,-1.24,1.47,-3.37,0.49
1988-07,0.004279377856132411,-0.019316481209284208,-0.005950102331153032,-0.00033252096275529486,0.01488333555751024,0.01060395770137783,0,198807,-1.25,-0.21,2.22,-0.58,1.52,0.51
1988-08,-0.024358095643750455,-0.04001972715016343,-0.009326432767611215,-0.009729992992985718,-0.027795096376645803,-0.0034370007328953477,0,198808,-3.31,-0.03,2.15,-0.82,1.76,0.59
1988-09,0.04597277913214069,0.04600347359016268,0.028401163355010858,0.05216923777094039,0.007820252733940141,-0.03815252639820055,0,198809,3.3,-1.36,-0.75,1.76,-0.61,0.62
1988-10,0.019250914377982365,0.01937238520445789,0.018093900500812922,-0.001073247374528919,-0.01075034948208105,-0.030001263860063417,0,198810,1.15,-2.95,2.05,1.3,1.03,0.61
1988-11,-0.015635439935205723,-0.015354494679104201,-0.016320143908335753,-0.019254768889027447,-0.03710321635468257,-0.021467776419476847,0,198811,-2.29,-1.65,1.41,-0.28,1.62,0.57
1988-12,0.015321624847922837,0.027707337575734334,0.022694057566140204,0.044938646902112134,0.03072244142230176,0.015400816574378922,0,198812,1.49,2.01,-1.69,0.69,-0.38,0.63
1989-01,0.06493169669445206,0.06457819528622537,0.08266643080573592,0.0643472144463172,0.08475487450991512,0.019823177815463056,0,198901,6.1,-2.31,0.6,-0.95,0.14,0.55
1989-02,-0.019207462006184117,-0.02814420638864987,-0.013875243895008426,0.0083814767180228,-0.003863863221256305,0.015343598784927812,0,198902,-2.25,2.71,1.01,-0.87,1.81,0.61
1989-03,0.022899347909832137,0.03404524787025619,0.011814043733785334,0.04060978872635908,0.045977255802526026,0.02307790789269389,0,198903,1.57,0.68,0.58,0.05,0.72,0.67
1989-04,0.06176152037671244,0.05459015010159834,0.05689601799837887,0.055167043232822406,0.03265137217363762,-0.029110148203074816,0,198904,4.33,-0.78,-1.42,0.71,-0.57,0.67
1989-05,0.05571161383503973,0.04773597598588362,0.03479303516559601,0.03934546472106706,0.045590780296587696,-0.010120833538452036,0,198905,3.35,-0.01,-0.88,0.49,-0.08,0.79
1989-06,-0.009581970992408283,-0.0027092797377140116,0.0023384203406391704,0.0074114756650922155,-0.0028539088519642336,0.006728062140444049,0,198906,-1.35,-1.09,2.25,0.27,1.56,0.71
1989-07,0.0918113256299851,0.08528467617121024,0.07186456784886451,0.05192694056414014,0.03643173624344085,-0.055379589386544255,0,198907,7.2,-4.15,-2.79,1.98,-0.58,0.7
1989-08,0.020457169096082986,0.03543226447039663,0.014610163535930512,0.03321448070235531,0.04063370158912227,0.020176532493039287,0,198908,1.44,0.48,0.6,0.39,-0.58,0.74
1989-09,-0.0002486036099625645,0.002968368361630659,0.011010200975181234,-0.004060084307349098,-0.001198575415648745,-0.0009499718056861804,0,198909,-0.76,0.49,-1.27,1.4,0.5,0.65
1989-10,-0.015956534225608054,-0.021264422574473363,-0.03658531734466026,-0.04090285577095857,-0.09381578703312549,-0.07785925280751743,0,198910,-3.67,-3.3,-1.11,0.11,-0.04,0.68
1989-11,0.027502040581641168,0.020767388515298885,0.013746182654230343,-0.0029702337977244265,0.0016810428321922728,-0.025820997749448894,0,198911,1.03,-1.29,-1.09,-0.86,1.41,0.69
1989-12,0.03827655910653507,0.011038709464628758,0.017256653878556374,-0.00025178348922380903,0.033416607697443014,-0.004859951409092053,0,198912,1.16,-2.27,0.16,-0.07,1.42,0.61
1990-01,-0.06794485303056613,-0.060369482869010414,-0.07560368736126352,-0.08541563722795734,-0.07967494572570889,-0.01173009269514276,0,199001,-7.85,-1.31,0.85,-1.17,1.35,0.57
1990-02,0.011061891967337692,0.02539405308556129,0.02989928234262051,0.0379531941689755,0.037794917727901195,0.0267330257605635,0,199002,1.11,1.17,0.64,-0.03,-0.66,0.57
1990-03,0.04754815360704348,0.022975442750060387,0.033030596353779786,0.010237137291059167,-0.015035543477389784,-0.06258369708443326,0,199003,1.83,1.62,-2.92,2.04,-1.02,0.64
1990-04,-0.010702704450584168,-0.01633850161329128,-0.02832995052783366,-0.04160316089309694,-0.06216816974428415,-0.05146546529369998,0,199004,-3.36,-0.33,-2.59,1.78,-0.98,0.69
1990-05,0.10683857442272653,0.09154337530299952,0.09499368255546639,0.09676292434260123,0.08209637339449764,-0.024742201028228883,0,199005,8.42,-2.35,-3.83,1.57,-1.68,0.68
1990-06,0.0029615546243983814,-0.0037779032908669048,-0.009861085385222625,-0.010078564893157116,-0.018215088270679268,-0.02117664289507765,0,199006,-1.09,1.35,-1.93,-1.03,-0.39,0.63
1990-07,0.0183848609351704,-0.018927023427941777,-0.0403386817505555,-0.04176978331104346,-0.07293414541294188,-0.09131900634811228,0,199007,-1.9,-3.16,-0.03,-0.18,3.21,0.68
1990-08,-0.08085261957081755,-0.08904795642144574,-0.11347937935314903,-0.1208483678819369,-0.1181789568612637,-0.037326337290446154,0,199008,-10.15,-3.87,1.64,-0.35,2.96,0.66
1990-09,-0.03855331862314443,-0.038949642624545824,-0.07200594457504356,-0.12258383119810119,-0.14893471162707106,-0.11038139300392663,0,199009,-6.12,-3.74,0.64,0.06,3.67,0.6
1990-10,-0.00034639804127814555,0.012885146491926241,-0.010793474340678422,-0.05734303970137302,-0.09847239884846684,-0.0981260008071887,0,199010,-1.92,-5.12,0.1,2.97,-0.3,0.68
1990-11,0.06491525881473069,0.0846774069830327,0.10676604654142603,0.1414331263747591,0.11561364909511532,0.05069839028038463,0,199011,6.35,0.07,-3.1,0.65,-4.74,0.57
1990-12,0.0334105207593212,0.036189046971881814,0.0450797191540942,0.055420509019867024,0.03057516360137524,-0.002835357157945962,0,199012,2.46,0.67,-1.7,2.73,-1.89,0.6
1991-01,0.04875626159855643,0.05527249982841255,0.09583269204233151,0.11056730772871855,0.14977913941027463,0.1010228778117182,0,199101,4.69,3.91,-1.6,1.28,-3.99,0.52
1991-02,0.07201416569067297,0.07314871683172182,0.09280233032999181,0.0998584735828608,0.22255543727064991,0.15054127157997693,0,199102,7.19,3.94,-0.58,-0.2,-0.33,0.48
1991-03,0.06552172052163521,0.04143393514198222,0.013093599161478139,0.030999052088128216,0.050026362613791404,-0.015495357907843808,0,199103,2.65,3.83,-1.39,-0.53,-1.06,0.44
1991-04,-0.0057626248084465615,0.0078061353123904656,0.007043323846747119,0.014269634446794103,0.006045270655996259,0.01180789546444282,0,199104,-0.28,0.31,1.5,0.62,0.74,0.53
1991-05,0.04798260168644324,0.03648886229385348,0.044263714569216475,0.05961658823792711,0.09984980997133022,0.05186720828488698,0,199105,3.65,0.14,-0.52,2.0,-2.43,0.47
1991-06,-0.032242155670218306,-0.04684996582612335,-0.05632694908814288,-0.05393543522111561,-0.04576795447370438,-0.013525798803486075,0,199106,-4.94,0.24,1.15,1.79,0.65,0.42
1991-07,0.05282087072658861,0.05282556616164876,0.05302136268470312,0.03164189727576501,0.0461166078074501,-0.006704262919138511,0,199107,4.24,-0.96,-1.32,1.6,-1.36,0.49
1991-08,0.0358685613136079,0.02827281210937687,0.03350291046369399,0.01643989182662544,0.042259090241425594,0.006390528927817697,0,199108,2.32,1.4,-0.78,0.84,-0.34,0.46
1991-09,-0.0045021889380752605,-0.014514274449707798,-0.001946704913663829,-0.0007716459716400499,-0.03319214547490809,-0.02868995653683283,0,199109,-1.59,1.56,-1.08,-1.82,0.08,0.46
1991-10,0.030521660790717997,0.016776650754948726,0.022730381420397523,0.015536435170493922,0.00972783708230583,-0.020793823708412165,0,199110,1.29,0.91,-0.47,-1.7,-0.23,0.42
1991-11,-0.031406676706197505,-0.027156185554528693,-0.03009861692657901,-0.05307317814374131,-0.07773424239152218,-0.04632756568532468,0,199111,-4.19,-0.83,-1.89,1.11,0.01,0.39
1991-12,0.10647489087293048,0.13677429958254936,0.12832403631148145,0.10120243517305691,0.07490691700073622,-0.03156797387219426,0,199112,10.84,-2.4,-4.17,3.55,-3.12,0.38
1992-01,-0.012909347869161841,-0.019775350359984387,0.017376021147135472,0.062154749159160985,0.145669781133577,0.15857912900273885,0,199201,-0.59,9.18,4.71,-1.32,3.2,0.34
1992-02,0.0061450876649363105,0.006234360567102318,0.02485811801224416,0.02843548532728985,0.12126072782768381,0.1151156401627475,0,199202,1.09,1.33,6.47,0.08,2.19,0.28
1992-03,-0.02457729844018221,-0.02101417706182341,-0.014983088668660329,-0.019666164393645522,-0.02044346001965931,0.004133838420522902,0,199203,-2.66,-0.93,3.56,-0.01,1.95,0.34
1992-04,-0.021978284032353173,0.03672765643382248,0.028398747905326566,0.016083006245743377,0.043709511163938175,0.06568779519629135,0,199204,1.07,-5.7,4.34,1.69,2.23,0.32
1992-05,0.009893677087178565,0.013526403265083344,0.005752297423207186,0.010735152349790146,-0.0012564806723673395,-0.011150157759545904,0,199205,0.3,0.21,1.19,-0.95,0.48,0.28
1992-06,-0.007220767494923126,-0.022858572225963963,-0.01245873202246379,-0.015467315887840736,0.004522682043983584,0.01174344953890671,0,199206,-2.34,-2.73,3.24,-0.05,1.01,0.32
1992-07,0.05183024944522691,0.048315057289377406,0.03317404219487586,0.03743057599522881,0.00769443884427433,-0.044135810600952584,0,199207,3.77,-0.62,-0.56,1.3,-0.91,0.31
1992-08,-0.010470888822381424,-0.017411721080211495,-0.018866740400186398,-0.026158647446385536,-0.08115839700182713,-0.0706875081794457,0,199208,-2.38,-0.42,-1.1,3.72,-1.65,0.26
1992-09,0.014294362915470113,0.024728675739993676,0.01637554535160972,0.018251227449735775,0.009711251529557189,-0.004583111385912924,0,199209,1.19,0.48,-0.26,1.64,-0.59,0.26
1992-10,0.01965378809058193,0.013486052719404918,0.028883141065956693,-0.004183854124459272,0.013617247598621908,-0.006036540491960021,0,199210,1.02,2.07,-1.98,1.24,-0.79,0.23
1992-11,0.03497667720178596,0.043065499941734656,0.059846157659870246,0.06872745721054313,0.10311581973839155,0.06813914253660559,0,199211,4.13,3.94,-1.35,-0.68,-1.59,0.23
1992-12,0.03352291474107037,0.010745316740831186,0.012927826303657245,0.040721619387627805,0.0351363293310111,0.0016134145899407287,0,199212,1.53,1.68,2.62,-0.48,0.84,0.28
1993-01,0.011274106079060356,0.004897149905720363,0.01654877066952431,0.03059840457835688,0.07323440997172082,0.06196030389266046,0,199301,0.93,1.93,5.94,-1.84,2.91,0.23
1993-02,0.030496299513004716,-0.0015716701362139688,-0.009006002834000342,0.023663401609841636,0.01260717074633795,-0.017889128766666765,0,199302,0.12,-3.45,6.42,-0.42,4.13,0.22
1993-03,0.02323861988970815,0.03469593301681279,0.031221390304637053,0.025210725260079652,0.024293121661500012,0.0010545017717918624,0,199303,2.3,0.09,1.18,-0.15,0.9,0.25
1993-04,-0.040441916757804466,-0.02791813269414343,-0.004820597420228236,-0.025028111436977828,-0.041676441889289643,-0.0012345251314851771,0,199304,-3.05,-0.85,2.49,-3.61,1.38,0.24
1993-05,0.03796832781066377,0.03493128521798392,0.030042314057576215,0.029972388890484796,0.05630734538756071,0.01833901757689694,0,199305,2.89,1.9,-3.42,-0.12,-1.04,0.22
1993-06,0.01752357738711944,0.0007022885399865036,0.013115607381146694,0.011143984227516474,-0.01187918568800197,-0.029402763075121408,0,199306,0.31,0.13,2.75,-0.92,1.21,0.25
1993-07,0.00112274785634259,-0.003012874244436214,0.009347952880059796,0.01962036535805743,-0.007547629632649686,-0.008670377488992277,0,199307,-0.34,0.95,2.85,-1.87,2.06,0.24
1993-08,0.04422805853863251,0.036415560452560655,0.05531452557672816,0.039016544059714955,0.07376502838208361,0.029536969843451104,0,199308,3.71,0.1,0.13,-1.54,-0.04,0.25
1993-09,0.0026376802023392065,0.0015030275833126734,0.01289927086967281,-0.00011464132995466263,0.020470146816170955,0.017832466613831748,0,199309,-0.12,2.98,-0.31,0.24,-0.16,0.26
1993-10,0.006092452160593162,0.015793875357765084,0.03798423822446514,0.04687994801435067,0.05817410407850406,0.0520816519179109,0,199310,1.41,1.89,-2.76,0.57,0.6,0.22
1993-11,-0.020765565589013844,-0.003586105690860134,-0.012444214067065808,0.0012165558261816084,-0.006796166315153047,0.013969399273860797,0,199311,-1.89,-1.27,-0.74,2.23,-0.94,0.25
1993-12,0.019127518305248906,0.01905169971201862,0.03205393079452625,0.029542073209565874,0.015709402225710985,-0.00341811607953792,0,199312,1.65,1.4,0.32,1.16,-0.34,0.23
1994-01,0.02673893340213191,0.034065966880119654,0.039664795418607325,0.06150263126678088,0.06502835804317798,0.03828942464104607,0,199401,2.87,-0.06,1.15,-1.66,1.43,0.25
1994-02,-0.03012112670523448,-0.006775177582944786,-0.0202697538726575,-0.019128151270504153,-0.015423019885706424,0.014698106819528056,0,199402,-2.55,2.67,-1.54,2.14,-1.0,0.21
1994-03,-0.05009656456741317,-0.03457514015249316,-0.03414195119169336,-0.047533609246591564,-0.06438703278565075,-0.014290468218237581,0,199403,-4.78,-1.04,1.6,0.69,1.28,0.27
1994-04,0.014025366894062525,0.023051189247607545,0.0114455429037654,0.014118588411151238,-0.018765612086428934,-0.03279097898049146,0,199404,0.68,-1.01,1.66,1.07,1.11,0.27
1994-05,0.01847831744205786,0.010112372196603133,0.018029235127386602,0.014062285713476345,0.003937133765596844,-0.014541183676461015,0,199405,0.58,-2.56,0.67,0.6,0.68,0.31
1994-06,-0.018957376588971793,-0.023574721753637187,-0.03307934753333473,-0.0305632939082441,-0.030811689801785464,-0.011854313212813671,0,199406,-3.03,-0.5,1.67,1.21,1.47,0.31
1994-07,0.03880920711931473,0.030028335721745705,0.033553801352085126,0.03666585114142097,0.033499685520989225,-0.005309521598325505,0,199407,2.82,-1.85,0.58,-0.65,0.14,0.28
1994-08,0.0391702374671089,0.04723297347098855,0.06744837717620543,0.05841264238931304,0.09241079686572272,0.05324055939861382,0,199408,4.01,1.37,-2.51,0.95,-1.47,0.37
1994-09,-0.022461177723475525,-0.015289982695528751,-0.017433051390349882,0.0021632838926820214,0.0059320392888476915,0.028393217012323217,0,199409,-2.31,2.8,-1.89,0.52,0.93,0.37
1994-10,0.02565274368846021,0.021304954523971117,0.018770817339950004,0.029416952219074626,0.006298624901781189,-0.019354118786679024,0,199410,1.34,-2.3,-1.62,0.23,-0.68,0.38
1994-11,-0.033148550110857836,-0.03157659447290128,-0.03576384149687272,-0.0349879867024581,-0.03637818651324395,-0.0032296364023861115,0,199411,-4.04,0.07,-0.7,0.42,-0.5,0.37
1994-12,0.019582088030260715,0.015952349170024166,0.021595552606597908,0.010730196106840438,0.009221683287971854,-0.01036040474228886,0,199412,0.86,0.0,-0.13,0.37,0.38,0.44
1995-01,0.043518315844016844,0.021138433223048116,0.0013052595818401594,0.014136622840645577,0.010561720999144703,-0.03295659484487214,0,199501,1.8,-3.06,2.57,0.17,-0.75,0.42
1995-02,0.040106818301183005,0.03890403371131015,0.04814473338024827,0.05522959538454648,0.06452147082660457,0.02441465252542157,0,199502,3.63,-0.54,1.08,0.59,-0.33,0.4
1995-03,0.04182780995334939,0.022852771212557237,0.02600669214823153,0.03847493160408983,0.03376724568259226,-0.008060564270757131,0,199503,2.19,-0.51,-2.15,-0.17,0.22,0.46
1995-04,0.038088058896238355,0.03702180761198237,0.01224221203018362,0.04038079373962111,0.026547304388252133,-0.011540754507986223,0,199504,2.11,-0.22,1.71,0.41,0.9,0.44
1995-05,0.04210946274620701,0.0325980605275261,0.04455777411679766,0.0338002154119821,0.025438030926636716,-0.016671431819570297,0,199505,2.9,-2.19,2.29,0.39,0.04,0.54
1995-06,0.017896604348436655,0.02948356722701146,0.054804748670606876,0.0589744599730007,0.09326444959920427,0.07536784525076762,0,199506,2.72,3.06,-2.54,-0.33,-2.44,0.47
1995-07,0.040854313395137364,0.035489303103707875,0.05856429562776391,0.05596970671899058,0.07634797651026175,0.035493663115124384,0,199507,3.72,2.09,-1.62,0.3,-1.65,0.45
1995-08,0.024896192827220037,-0.0006743462769962369,0.012359746624803717,0.024482974984994254,0.04459714147044974,0.019700948643229705,0,199508,0.55,1.75,2.79,-1.24,1.62,0.47
1995-09,0.06082975750911266,0.03622076086023191,0.031485694862159415,0.029902248609157814,0.030680296360874257,-0.030149461148238403,0,199509,3.35,-1.88,-0.04,1.03,0.36,0.43
1995-10,0.008873089025765507,-0.007995586229873744,-0.010971425986950133,0.010097271297491132,-0.055051779909105106,-0.06392486893487061,0,199510,-1.52,-4.04,-0.5,1.91,-0.05,0.47
1995-11,0.055780294907524355,0.045832654538327376,0.045319199989414895,0.05611852000827189,0.022906332996292914,-0.032873961911231445,0,199511,3.96,-1.07,0.51,-0.62,1.12,0.42
1995-12,0.03262404449685272,0.020551222075416906,0.008438504486203006,0.030468423577730257,0.012496061337783141,-0.020127983159069576,0,199512,1.03,0.72,0.22,-1.37,3.1,0.49
1996-01,0.03815816854259091,0.03021569931310257,0.03290322205129217,0.046004225250372836,0.017775799091677858,-0.02038236945091305,0,199601,2.26,-2.56,0.38,0.18,2.31,0.43
1996-02,0.013783064114927097,0.016805376421086954,0.02856718655539967,0.02638323402644523,0.04441798652369499,0.030634922408767893,0,199602,1.33,1.77,-1.08,0.24,-1.9,0.39
1996-03,0.03129146611858864,0.022609909696213012,0.008263660706665175,0.013468914664392088,0.04229844067434008,0.01100697455575144,0,199603,0.73,1.61,0.35,1.42,-0.95,0.39
1996-04,0.03592115555273301,0.0277045202759079,0.024954899192761455,0.025616446113959843,0.06544019519576452,0.029519039643031514,0,199604,2.06,4.71,-4.02,-0.14,-2.11,0.46
1996-05,0.01650899641809134,0.04674239754601657,0.033294619189884106,0.022781786582231903,0.048303268107134804,0.03179427168904346,0,199605,2.36,3.21,-0.83,0.12,-0.3,0.42
1996-06,0.012217330405337203,0.004947115929133648,-0.008696567849822971,-0.020433011575621007,-0.07062760985964056,-0.08284494026497777,0,199606,-1.14,-3.65,2.35,3.51,1.22,0.4
1996-07,-0.03739825531573662,-0.03809273210880542,-0.06577109784689357,-0.0821309805471949,-0.1281234099258591,-0.09072515461012248,0,199607,-5.97,-3.81,5.14,2.95,2.6,0.45
1996-08,0.034119682037239855,0.02673830730061207,0.05295305452261988,0.05481230002479556,0.07103601910213565,0.0369163370648958,0,199608,2.77,2.57,-0.74,-0.37,-2.42,0.41
1996-09,0.04857048263084013,0.058962433385767204,0.06821827763802024,0.08664155143166982,0.045665236762153366,-0.002905245868686762,0,199609,5.01,-1.39,-2.72,1.27,-2.22,0.44
1996-10,0.04178799204905274,0.019125066711231924,0.01922603169383337,0.0016462245538072958,-0.05098728347072557,-0.09277527551977831,0,199610,0.86,-3.77,4.94,1.4,3.25,0.42
1996-11,0.07322882429802989,0.07676576284880844,0.06958180183953432,0.08015636294000379,0.06983625065187929,-0.003392573646150601,0,199611,6.25,-3.8,1.39,2.12,-0.79,0.41
1996-12,0.0016361165317485074,-0.012738549856585471,-0.011011871061977454,-0.0012489638346797327,-0.003603036540248665,-0.005239153071997172,0,199612,-1.7,3.25,1.31,0.37,1.49,0.46
1997-01,0.04520630151695029,0.06099102973106324,0.07925878514624639,0.06635433604968025,0.08567799897735777,0.04047169746040748,0,199701,4.99,-1.82,-1.42,1.19,-0.02,0.45
1997-02,0.02480310337285894,0.009787691399479163,-0.0057356417834881265,-0.002614314097719305,-0.01296867882889631,-0.037771782201755255,0,199702,-0.49,-2.59,5.67,0.67,3.47,0.39
1997-03,-0.030222439614745064,-0.041233399039531236,-0.04129982264438199,-0.04186513126337851,-0.048311467981599375,-0.01808902836685431,0,199703,-5.03,-0.43,3.39,0.5,1.66,0.43
1997-04,0.08632377158836851,0.059115211388396025,0.044345014744837305,0.06359962949615856,-0.0214968719204053,-0.10782064350877382,0,199704,4.04,-5.7,0.07,3.26,-0.72,0.43
1997-05,0.06678503749442903,0.06952623696424351,0.0813900752743954,0.09161623721254208,0.14347428343093874,0.0766892459365097,0,199705,6.74,4.75,-4.13,-1.02,-2.96,0.49
1997-06,0.04007538125793949,0.050475984518255655,0.05762164328438365,0.041019822711406785,0.05299228654732717,0.01291690528938768,0,199706,4.1,1.19,1.58,0.56,0.66,0.37
1997-07,0.07380317641920953,0.08140308215860556,0.08278061053277756,0.14765517858423283,0.1041525415155794,0.030349365096369874,0,199707,7.33,-2.77,0.26,0.07,-2.57,0.43
1997-08,-0.032856869504950696,-0.036630992621935914,-0.050192340843973456,-0.002373322521989893,0.0738198293085819,0.10667669881353259,0,199708,-4.15,7.61,1.18,-1.11,-0.04,0.41
1997-09,0.06588719680359122,0.057999937411445456,0.06489048401893238,0.05580798293990196,0.09400114022067345,0.028113943417082232,0,199709,5.35,2.49,0.37,-1.63,-0.91,0.44
1997-10,-0.013809805795944631,-0.030715814703744192,-0.037269131251356294,-0.01758647823767074,-0.0533533825959995,-0.039543576800054867,0,199710,-3.8,-0.52,2.27,1.0,1.94,0.42
1997-11,0.05711386734474152,0.04029468591076753,0.028719314529979046,0.0440159976918429,-0.050251071412940725,-0.10736493875768224,0,199711,2.98,-5.1,1.19,2.8,1.83,0.39
1997-12,0.042077569259620105,0.025203945672048558,0.02417796247604702,0.001473416888949173,-0.038334407720743265,-0.08041197698036337,0,199712,1.32,-2.04,3.84,0.75,1.93,0.48
1998-01,-0.01587804001739903,0.01815465727546727,0.025632331851084766,0.03943762849630705,0.04740180905653548,0.06327984907393451,0,199801,0.15,-1.36,-1.63,0.86,-0.73,0.43
1998-02,0.07460456074149688,0.07397347028298931,0.08278905769003243,0.09799411076469287,0.08802692385978972,0.01342236311829284,0,199802,7.04,0.2,-0.85,-0.31,-2.54,0.39
1998-03,0.05823464866135997,0.06688247832188936,0.05925385527737225,0.04697652511557998,0.06647291513035643,0.00823826646899646,0,199803,4.76,-0.65,1.39,-0.26,-0.37,0.39
1998-04,-0.0008215848734190159,0.04075757044276407,0.015583356459916733,0.007409577820060799,-0.0005011121493252517,0.00032047272409376425,0,199804,0.73,-0.01,0.94,-1.69,-0.36,0.43
1998-05,-0.016252491201124746,-0.02964672533640321,-0.015205316104603928,-0.020123194977280164,-0.08495104636181482,-0.06869855516069007,0,199805,-3.07,-2.93,3.4,1.07,2.59,0.4
1998-06,0.04056655748620625,0.059067567257993905,0.04156156420565094,0.02924146113711562,-0.01753457224877448,-0.05810112973498073,0,199806,3.18,-3.65,-1.97,-0.27,-2.97,0.41
1998-07,-0.018802060212547135,-0.0031844974516740425,-0.010108729355900768,-0.03820083007192421,-0.0755735736499603,-0.056771513437413164,0,199807,-2.46,-5.27,-1.78,1.74,0.45,0.4
1998-08,-0.11268745861539087,-0.132108379386202,-0.15715224371340603,-0.18468612490857436,-0.24807283103387978,-0.13538537241848891,0,199808,-16.08,-5.18,3.53,3.39,5.89,0.43
1998-09,0.060498196641156375,0.07102752403897584,0.11513928790274312,0.16260628590111526,0.1480994190963186,0.08760122245516222,0,199809,6.15,-0.77,-3.42,-1.89,-2.97,0.46
1998-10,0.10184819108720314,0.09333903049786331,0.07045098679181235,0.08968816959908214,0.090103908850033,-0.01174428223717014,0,199810,7.13,-3.43,-2.23,0.93,0.32,0.32
1998-11,0.06210587537229425,0.059332920175535535,0.0908499457773485,0.1177316339049001,0.23105056811028654,0.16894469273799229,0,199811,6.1,0.74,-3.25,-0.85,-1.2,0.31
1998-12,0.043555617357525986,0.04880428898283434,0.12655764326952185,0.12817811341593616,0.06714503645974597,0.023589419102219983,0,199812,6.16,-1.57,-4.19,-0.75,-3.4,0.38
1999-01,0.016142518673158888,0.019259393254895316,0.08906293260162153,0.12208600254698133,0.1895779470013579,0.17343542832819903,0,199901,3.5,-0.74,-4.6,-2.79,-6.77,0.35
1999-02,-0.00920068787237406,-0.016519638850754696,-0.038815879215412394,-0.04839970791438162,-0.06587368926516046,-0.0566730013927864,0,199902,-4.08,-5.23,1.92,-1.21,4.07,0.35
1999-03,0.02995621374605425,0.0753197380466943,0.04820865433679183,0.03419016585198846,0.07707578899787419,0.047119575251819944,0,199903,3.45,-4.23,-2.74,-4.07,-1.41,0.43
1999-04,0.06961638976708824,0.038278364626953894,0.0776287235975286,0.11002179763571054,0.19059398425487295,0.12097759448778471,0,199904,4.33,4.53,2.46,-2.53,0.9,0.37
1999-05,-0.01929557080807702,-0.027398182230704962,-0.00679150934610393,0.041992709204642834,0.043889969398791535,0.06318554020686856,0,199905,-2.46,3.71,2.35,0.93,3.33,0.34
1999-06,0.05366866010704585,0.060764919477845396,0.06598304721164064,0.093400156666004,0.08226006895006657,0.02859140884302072,0,199906,4.77,2.29,-3.19,1.14,-3.23,0.4
1999-07,-0.017139448664404266,-0.025026616573679387,-0.03570435923769823,0.004868362021837952,0.03555904702628842,0.05269849569069268,0,199907,-3.49,2.57,-0.44,0.36,3.22,0.38
1999-08,-0.0084498766918936,0.007120866573378092,-0.0026435601639959224,0.0017008681813468676,-0.02422128578873865,-0.01577140909684505,0,199908,-1.38,-1.73,-1.87,-0.24,0.64,0.39
1999-09,-0.031449599620284305,-0.026984266137791396,-0.0005705117258810797,0.03755526773591781,0.008350215357172683,0.039799814977456986,0,199909,-2.79,2.59,-3.5,-0.75,-1.23,0.39
1999-10,0.07529590634156687,0.08340190108880866,0.08382641700228785,0.07428749798441182,0.006878750166840092,-0.06841715617472678,0,199910,6.12,-6.91,-3.37,-1.75,-1.19,0.39
1999-11,0.003396835102719204,0.020885655193777254,0.08902674488582706,0.1457352593109191,0.22789029211840137,0.22449345701568216,0,199911,3.37,5.8,-6.11,-4.27,-1.75,0.36
1999-12,0.01940844495797064,0.014623519420724774,0.20921098180402128,0.21079577199962019,0.21390331392131393,0.19449486896334328,0,199912,7.72,5.39,-8.32,-7.6,-5.63,0.44
2000-01,-0.03605382004192387,-0.0006773493626302811,-0.038298068956139776,-0.02220981315653993,0.10723973472293129,0.14329355476485517,0,200001,-4.74,4.44,-1.91,-6.31,4.75,0.41
2000-02,-0.06365929807969417,0.0072027883578298126,0.19990116321480245,0.09521950226160732,0.16531048989421293,0.2289697879739071,0,200002,2.45,18.34,-9.7,-18.73,-0.36,0.43
2000-03,0.0867746056230187,0.05785481800329263,0.11934633190667936,0.111331136698138,0.17043743106473933,0.08366282544172063,0,200003,5.2,-15.35,8.17,11.82,-1.65,0.47
2000-04,-0.06516404134590406,-0.028179513421650357,-0.015016083107904404,-0.0029718377245751652,0.008464062231117949,0.07362810357702201,0,200004,-6.4,-5.01,7.26,7.66,5.65,0.46
2000-05,0.06233282964622698,-0.04480916724761977,-0.029725999692692046,0.0039252152191572645,0.004304968078035165,-0.05802786156819181,0,200005,-4.42,-3.84,4.81,4.17,1.3,0.5
2000-06,-0.028878364157174926,0.049214194568207685,0.16787727403211528,0.10512560043275934,0.1366082767522295,0.16548664090940443,0,200006,4.64,9.93,-8.43,-8.32,-2.93,0.4
2000-07,0.02539839113890351,-0.009057257259398368,-0.011788669485176866,-0.04928366580220753,-0.04474788257769776,-0.07014627371660127,0,200007,-2.51,-1.03,8.3,5.82,2.95,0.48
2000-08,0.10228763473261576,0.04667884851141416,0.12361211646015739,0.11804557293126772,0.09379181601638933,-0.008495818716226428,0,200008,7.03,-1.04,-1.38,-3.22,1.09,0.5
2000-09,0.051063288449833044,-0.0022580429383568415,-0.06017913133740553,-0.045221505082716315,-0.06764933701777395,-0.118712625467607,0,200009,-5.45,0.19,7.17,2.56,5.53,0.51
2000-10,0.058894142506898145,0.02031915916250126,-0.04304868132858108,-0.03553293479862068,-0.07995800044084668,-0.13885214294774484,0,200010,-2.76,-2.64,5.7,9.6,3.82,0.56
2000-11,-0.031465264450801986,-0.022104308281478434,-0.16218007992797578,-0.16352263320218946,-0.1984119654387638,-0.16694670098796183,0,200011,-10.72,-0.6,12.32,13.09,8.39,0.51
2000-12,0.071238728746786,0.031030689329582757,0.03486765980082634,0.054199936791517,0.016957969063166423,-0.054280759683619575,0,200012,1.19,3.26,7.61,1.72,4.78,0.5
2001-01,0.09879539947361882,0.021059791343844735,0.04584083263192274,0.1822568306235658,0.5060068554496749,0.4072114559760561,0,200101,3.13,5.5,-5.09,-4.7,-5.0,0.54
2001-02,-0.005634500176065705,-0.03581954026466622,-0.11258382007169009,-0.12791940970398227,-0.09372441519111357,-0.08808991501504787,0,200102,-10.05,2.82,12.48,9.11,9.05,0.38
2001-03,-0.04443144683410613,-0.06682759186156498,-0.03964865164609584,-0.07287648435912875,-0.06613852045628785,-0.021707073622181716,0,200103,-7.26,2.33,6.42,3.36,3.91,0.42
2001-04,0.11758861402309206,0.08551517078949031,0.10141941296677477,0.11894990100322995,0.16766153886309987,0.050072924840007804,0,200104,7.94,-0.86,-4.68,-3.07,-3.19,0.39
2001-05,0.023935044773688564,0.012993789579632,0.01173751777116663,0.02938717968641414,0.05006648719088721,0.026131442417198645,0,200105,0.72,3.59,3.38,0.26,1.88,0.32
2001-06,-0.003944814638558994,-0.009404896176873843,-0.012079990688775768,0.030516961344956187,0.016823368022520845,0.02076818266107984,0,200106,-1.94,6.57,-1.13,1.6,-1.5,0.28
2001-07,0.031382774755969976,-0.0014592756648696575,-0.041117488713952884,-0.03640951189856474,-0.04037119066399207,-0.07175396541996204,0,200107,-2.13,-2.83,5.21,7.42,3.06,0.3
2001-08,-0.023453413328548302,-0.047288163556438084,-0.08666237785998995,-0.09122438332820614,-0.06904767357586361,-0.045594260247315305,0,200108,-6.46,2.71,2.3,4.05,6.56,0.31
2001-09,-0.022382895439922387,-0.060728287269884246,-0.11294480394848264,-0.141544010642708,-0.20152938871611845,-0.17914649327619606,0,200109,-9.25,-5.73,1.45,5.0,3.2,0.28
2001-10,-0.012921991574044233,0.03432413589907676,0.08901325108225483,0.11651932862011488,0.226209983487302,0.23913197506134623,0,200110,2.46,5.28,-7.66,-2.99,-4.54,0.22
2001-11,0.08980876990945055,0.07178683226222589,0.09924145313031214,0.16198071366691302,0.2594092608553761,0.16960049094592552,0,200111,7.54,-0.31,2.22,-3.72,-1.62,0.17
2001-12,0.04159202196241366,0.01676314711786168,0.015790007129926353,0.023580764524570703,0.10245838433651919,0.060866362374105525,0,200112,1.6,5.16,0.85,0.35,-0.27,0.15
2002-01,0.009095583312781059,8.165484709684441e-05,-0.023020342608064206,-0.012612489180545843,-0.01792681920262135,-0.02702240251540241,0,200201,-1.44,1.26,3.44,4.69,2.83,0.14
2002-02,0.023563254476472777,0.0010667608912061704,-0.032137457474799944,-0.05046313819732334,-0.10504764783820265,-0.12861090231467542,0,200202,-2.29,-0.36,2.16,8.06,5.11,0.13
2002-03,0.030963474390072757,0.04009457715367227,0.050871295430054,0.0903954737377751,0.15921297521943636,0.1282495008293636,0,200203,4.24,4.25,1.06,-1.78,0.57,0.13
2002-04,-0.03353763276865058,-0.03866499727565581,-0.04102277516662681,-0.04993284980100934,-0.08247353490751269,-0.04893590213886211,0,200204,-5.2,6.72,3.88,4.56,5.38,0.15
2002-05,-0.004490495600168995,-0.007546056390252275,0.004784145313497677,-0.018291327687514212,-0.05289627488329923,-0.04840577928313024,0,200205,-1.38,-3.02,1.53,2.37,2.43,0.14
2002-06,-0.030284320011096162,-0.04984920891513161,-0.08987177992173868,-0.12353175300758194,-0.16353039236319183,-0.13324607235209568,0,200206,-7.21,3.89,-0.03,3.93,2.49,0.13
2002-07,-0.036694623013341525,-0.06426525727187359,-0.09497342444454716,-0.1280933182009953,-0.09981328502815495,-0.06311866201481342,0,200207,-8.18,-6.43,-3.85,3.79,-0.99,0.15
2002-08,0.0017927466916246618,0.023529887099460942,0.003573715319577769,0.012584159143991127,0.09761657156481844,0.09582382487319378,0,200208,0.5,-1.3,3.29,1.36,-1.46,0.14
2002-09,-0.10424961662062172,-0.08040318926094012,-0.09248418463303035,-0.12459611929232303,-0.18454431979064426,-0.08029470317002253,0,200209,-10.35,3.07,1.47,3.29,-2.19,0.14
2002-10,0.10315597439104404,0.07157309328033633,0.11023309943106697,0.14995385122562194,0.2211942079297495,0.11803823353870546,0,200210,7.84,-4.3,-3.94,-3.4,0.77,0.14
2002-11,0.05080457861298051,0.043063093746571475,0.08192822464114222,0.2109096247551758,0.4714471129959134,0.4206425343829329,0,200211,5.96,2.93,-1.21,-9.21,5.17,0.12
2002-12,-0.01624666666060622,-0.0443749314297433,-0.07113161603115395,-0.0960671164455798,-0.1184314645587386,-0.10218479789813238,0,200212,-5.76,0.62,2.14,6.29,-1.68,0.11
2003-01,-0.024260006071061976,-0.024896889969766453,-0.0242939689031024,-0.00030531214827750884,0.05451344904104603,0.07877345511210801,0,200301,-2.57,0.72,-0.81,-1.0,0.71,0.1
2003-02,-0.029110190770380098,-0.009578006096196643,-0.00825012022031557,-0.014792677296655782,-0.011732629640704553,0.017377561129675544,0,200302,-1.88,-0.93,-1.38,0.83,-0.61,0.09
2003-03,0.016783135277633542,0.03119059047753436,0.009478344809900417,-0.01145917891046895,0.03765738562782006,0.02087425035018652,0,200303,1.09,0.67,-1.91,1.85,-0.75,0.1
2003-04,0.07844890474305674,0.08233262964934138,0.10266905739833952,0.09323971805602871,0.19955629108053677,0.12110738633748003,0,200304,8.22,1.04,1.17,-4.7,1.09,0.1
2003-05,0.06301663110426929,0.06131359283399545,0.05577734760520588,0.10006744539033759,0.2293103695456888,0.16629373844141954,0,200305,6.05,4.87,0.5,-7.06,2.99,0.09
2003-06,0.022633298302655074,0.016231487329673795,0.018992332171301838,0.01570923252573115,0.04709252048381298,0.024459222181157907,0,200306,1.42,1.68,0.15,0.48,-0.35,0.1
2003-07,0.012989604246304406,0.02431951216998989,0.04720369480049271,0.03896797083481655,0.10520182481521602,0.09221222056891161,0,200307,2.35,4.54,-1.24,-4.15,1.77,0.07
2003-08,0.024099652018240842,0.010574986837630572,0.03377652275617927,0.06094337454337102,0.08631617566655919,0.06221652364831835,0,200308,2.34,2.48,1.54,-2.24,2.13,0.07
2003-09,0.000428973043321424,0.003415833887943119,-0.022750728578745397,-0.019198290425564084,0.013286246615626322,0.012857273572304899,0,200309,-1.24,0.55,0.15,1.0,0.35,0.08
2003-10,0.06786390624483493,0.05012679871087529,0.06703441279103001,0.10063445230671257,0.12557767000259337,0.05771376375775844,0,200310,6.08,2.71,1.97,-1.35,1.54,0.07
2003-11,0.018126881102041324,0.014084802851340034,0.014485353046291082,0.01860641197869766,0.05801310181665447,0.039886220714613146,0,200311,1.35,2.33,1.78,0.19,1.8,0.07
2003-12,0.07222581296416454,0.052779971606036,0.024942675594815222,0.03215315725399274,0.058984234424386835,-0.013241578539777706,0,200312,4.29,-2.49,1.61,0.57,0.94,0.08
2004-01,0.029662574236020433,0.018078120210597,0.014343964197772814,0.040066470565045656,0.12768929475529894,0.0980267205192785,0,200401,2.15,2.45,2.48,-3.67,3.38,0.07
2004-02,0.03139840612743379,0.01519195177954236,0.024538197807137743,0.00647399412873579,0.004184808269570817,-0.027213597857862974,0,200402,1.4,-0.93,0.91,2.18,-1.21,0.06
2004-03,-0.0036691404396101248,0.004237196421684307,-0.016676011292578268,-0.012605345938640353,-0.015615417104397579,-0.011946276664787453,0,200403,-1.32,2.1,0.28,1.56,-0.98,0.09
2004-04,-0.006114775869552648,-0.010346826131522326,-0.008660580859884729,-0.01916044107886707,-0.030666828512839008,-0.02455205264328636,0,200404,-1.83,-2.01,-3.09,3.46,-2.84,0.08
2004-05,0.015711288281172353,0.0254809665666213,0.006171179031839083,0.02379312170201275,0.015123148525860266,-0.0005881397553120869,0,200405,1.17,-0.38,-0.24,-1.18,0.02,0.06
2004-06,0.026496686030268987,0.021894399056030522,0.01925938514006412,0.026647987046768667,0.01993492874815457,-0.0065617572821144166,0,200406,1.86,2.56,1.19,1.2,-0.39,0.08
2004-07,-0.003926036313759358,-0.02843494015379096,-0.059121976216610785,-0.04856643080257645,-0.10972934272241164,-0.10580330640865228,0,200407,-4.06,-2.95,3.23,5.33,-1.66,0.1
2004-08,0.024686063846973444,0.00034229670866963704,-0.007362955071534851,-0.0028142210394820487,-0.006438028601809808,-0.031124092448783253,0,200408,0.08,-1.16,1.0,1.18,-1.44,0.11
2004-09,0.023043476283627896,0.007801481456634219,0.03360220473379098,0.01846148030525939,0.05929889800803667,0.03625542172440878,0,200409,1.6,3.27,-0.01,-1.48,-1.89,0.11
2004-10,0.01799569823878696,0.022861835561199095,0.019172559704680053,0.016247031409883542,0.029443684492197603,0.011447986253410643,0,200410,1.43,0.19,-0.22,-0.52,0.49,0.11
2004-11,0.04978595936784927,0.03556535529306739,0.05503180101004047,0.06484030736797855,0.10509614556137944,0.055310186193530175,0,200411,4.54,4.11,1.42,-0.59,-0.21,0.15
2004-12,0.03562812937822689,0.03647595022995835,0.03795891926378588,0.04571259230658498,0.05954869156766048,0.023920562189433593,0,200412,3.43,-0.05,-0.22,-1.16,0.46,0.16
2005-01,-0.01233170681940128,-0.01691978346887113,-0.028254461980652765,-0.031171163946315684,-0.07380418777475005,-0.06147248095534877,0,200501,-2.76,-1.18,2.06,2.73,-1.46,0.16
2005-02,0.0657881226733271,0.004073503306216171,0.01640889202305207,0.02107170760169485,0.004897291732792548,-0.06089083094053456,0,200502,1.89,-0.3,1.53,1.45,-0.05,0.16
2005-03,-0.011335244703865467,-0.007941959232636023,-0.009104713746835877,-0.02355432974066147,-0.0464755671497068,-0.03514032244584133,0,200503,-1.97,-1.42,2.04,0.47,1.29,0.21
2005-04,-0.03269653829714541,-0.0024526576285803865,-0.002458615850227448,-0.045442743108473904,-0.05702294819974696,-0.02432640990260155,0,200504,-2.61,-3.98,0.06,0.97,-0.94,0.21
2005-05,0.042421586415432394,0.045117804629599995,0.038864241409600805,0.039279036664309395,0.07469759472789105,0.03227600831245865,0,200505,3.65,2.79,-0.64,-1.0,0.3,0.24
2005-06,0.017293786826188217,-0.0006657350898400979,-0.0034058933817635636,0.03696409188195721,0.048347141182022,0.03105335435583378,0,200506,0.57,3.28,2.82,0.97,-0.51,0.23
2005-07,0.033734325911410144,0.04237148258298997,0.06425321774023915,0.05926215084893691,0.055303054044973564,0.02156872813356342,0,200507,3.92,2.8,-0.78,-1.22,-0.81,0.24
2005-08,0.006284123321374315,-0.013973507010208927,-0.01480911185862335,-0.0003622493370702267,0.0037220128518209773,-0.002562110469553338,0,200508,-1.22,-0.89,1.32,-2.05,0.36,0.3
2005-09,0.02096463145371146,-0.0006535553595685031,0.01616546453787486,0.0074518879855237485,0.008875396453462324,-0.012089235000249138,0,200509,0.49,-0.35,0.72,0.27,-0.6,0.29
2005-10,-0.016756524139875568,-0.008141815981850936,-0.009088703587549842,-0.008645073670616519,-0.04757397198252717,-0.030817447842651603,0,200510,-2.02,-1.45,0.43,-0.94,-1.3,0.27
2005-11,0.03954956223263677,0.03845913732685924,0.04796933116921986,0.049660712960666965,0.05716219901111689,0.01761263677848012,0,200511,3.61,0.85,-1.18,-0.74,-1.14,0.31
2005-12,0.010255937152105578,-0.005178243869765545,0.0017159528106589755,0.0027919186689877255,0.0287714788823859,0.018515541730280322,0,200512,-0.25,-0.21,0.2,0.21,0.23,0.32
2006-01,0.05046048229762384,0.009619341069448123,0.04824704018902062,0.06016623575035883,0.0987057302446775,0.04824524794705366,0,200601,3.04,5.75,1.08,-0.64,-0.46,0.35
2006-02,0.009724991766698356,0.006472923903242621,-0.004254711493751767,0.0017496320205897314,0.011895601009933478,0.0021706092432351217,0,200602,-0.3,-0.42,-0.35,-0.51,1.91,0.34
2006-03,0.02973566756744605,0.01662828017833558,0.0162173262338905,0.022513228746697166,0.04048328932583706,0.010747621758391009,0,200603,1.46,3.4,0.59,0.09,-0.41,0.37
2006-04,-0.0015996693413884795,0.01742608515680157,0.015729922431539034,0.02420035623825372,0.027884162656049347,0.029483831997437825,0,200604,0.73,-0.84,2.34,1.8,0.01,0.36
2006-05,-0.02406228129749065,-0.036885094750150026,-0.02005425894289391,-0.03521477661988974,-0.04217466439026162,-0.01811238309277097,0,200605,-3.57,-2.85,2.42,1.15,1.46,0.43
2006-06,0.009647236202631564,0.0007370087570696739,-0.0041961465058932695,0.011835133901142245,-0.02713798096644462,-0.036785217169076186,0,200606,-0.35,-0.24,0.85,1.33,-0.07,0.4
2006-07,0.03663003300439187,-0.011225330384844084,-0.019580190040529896,-0.02226589080988475,-0.043280910518840095,-0.07991094352323197,0,200607,-0.78,-3.64,2.62,1.63,0.9,0.4
2006-08,0.020147887749723044,0.03878149363045516,0.017792282412545917,0.034819217508642794,0.07901164258089485,0.05886375483117181,0,200608,2.03,0.44,-2.06,-1.86,2.09,0.42
2006-09,0.02348101027345022,0.02214212787448637,0.030854432980247773,0.03361312651172008,0.027980945745941798,0.004499935472491577,0,200609,1.84,-1.46,0.08,0.82,0.6,0.41
2006-10,0.03744234761889876,0.029038241936725964,0.03931044136877071,0.06100206295824275,0.06560736838570272,0.02816502076680396,0,200610,3.23,1.98,-0.3,-0.12,0.28,0.41
2006-11,0.027601547817044596,0.015708060469896295,0.0258991022538417,0.03554520404666388,0.031482103243654136,0.00388055542660954,0,200611,1.71,0.71,0.14,0.15,-0.81,0.42
2006-12,0.019600364158583183,0.014414954737404628,0.00756153805665561,0.013642755447876267,0.021609251722129862,0.002008887563546679,0,200612,0.87,-0.82,2.73,-0.72,2.06,0.4
2007-01,0.016908592180944124,0.019253036845054736,0.02532716096859343,0.03275035424154661,0.04752437748899936,0.030615785308055237,0,200701,1.4,0.08,-0.69,0.25,0.38,0.44
2007-02,-0.0044028417093269975,-0.019021840362120703,-0.003223160187095765,-0.019945607438691823,-0.02363898236755946,-0.019236140658232464,0,200702,-1.96,1.28,-0.13,-0.51,-0.71,0.38
2007-03,0.009253958806220127,0.017887439883245256,0.014571100568992027,0.02085756217340235,0.002701876096506277,-0.006552082709713849,0,200703,0.68,0.19,-0.96,0.64,-0.65,0.43
2007-04,0.04435554069969767,0.0439407827572637,0.04528466406905379,0.04025288802793167,0.03715990759039625,-0.007195633109301415,0,200704,3.49,-2.03,-1.46,1.15,1.04,0.44
2007-05,0.02975299173537603,0.0486267166800423,0.04140628704241611,0.042778430329328536,0.05159182703888155,0.02183883530350552,0,200705,3.24,0.4,-0.65,1.58,-1.36,0.41
2007-06,-0.010393404375535523,-0.014866039049101333,-0.016470952145652248,-0.017219578036874725,-0.014272110050288292,-0.003878705674752769,0,200706,-1.96,0.75,-1.07,0.53,0.08,0.4
2007-07,-0.021935737019628313,-0.028235589449260953,-0.024169713419814963,-0.06022943684192453,-0.09218620028644017,-0.07025046326681186,0,200707,-3.73,-2.98,-3.72,0.2,-1.13,0.4
2007-08,0.019184667924518367,0.022564320445935083,0.014251071134278304,0.0007821300930742783,-0.0006897358063548926,-0.01987440373087326,0,200708,0.92,-0.37,-1.86,-1.21,-0.53,0.42
2007-09,0.03928512823475622,0.03667541735560999,0.059956033664679234,0.03415423752525503,0.0006630890376186714,-0.038622039197137546,0,200709,3.22,-2.43,-2.23,-0.52,-3.02,0.32
2007-10,0.027548443666549603,0.014164226504048858,0.06437277514163031,0.019417726112732705,-0.052796714251211005,-0.0803451579177606,0,200710,1.8,-0.03,-3.05,-0.3,-0.09,0.32
2007-11,-0.019153025614377043,-0.04171914506320603,-0.040370923221865404,-0.08412177792639465,-0.1701522826514744,-0.15099925703709735,0,200711,-4.83,-3.01,-0.95,1.89,-0.29,0.34
2007-12,0.010747439410225908,-0.0025011413430384806,-0.0022691765313366478,-0.015668411186853973,-0.049580257696549244,-0.06032769710677515,0,200712,-0.87,0.15,-0.54,0.87,-1.04,0.27
2008-01,-0.04889826220732171,-0.058439243438048925,-0.06953097189107006,-0.02558462304859815,0.005395417430579167,0.05429367963790088,0,200801,-6.36,-0.66,3.98,2.14,2.14,0.21
2008-02,-0.00872758819508625,-0.02237876379931143,-0.002526323984702065,-0.0449914208005439,-0.1177086235729424,-0.10898103537785615,0,200802,-3.09,-0.66,-0.84,0.88,-0.93,0.13
2008-03,0.010159002799733568,0.00636171594261232,0.005638073890286678,-0.02357933723755385,-0.0168695686657306,-0.02702857146546417,0,200803,-0.93,0.56,0.3,0.79,0.5,0.17
2008-04,0.054452591763775315,0.05923048712023492,0.04989869513541199,0.060124680074991554,0.057750866862116335,0.003298275098341019,0,200804,4.6,-1.14,-1.04,1.63,-2.47,0.18
2008-05,0.029679648292807007,0.0355613549824822,0.027841381387979047,0.049771040847623176,-0.057071406964965495,-0.0867510552577725,0,200805,1.86,3.06,-1.49,0.93,-0.06,0.18
2008-06,-0.052361644721890956,-0.08003972530844922,-0.05083550386376967,-0.15019397103996276,-0.23033493342080522,-0.17797328869891427,0,200806,-8.44,1.15,-2.67,4.96,-0.55,0.17
2008-07,0.014837110638119749,-0.03341252303653729,0.00225379799910933,0.1447656769744094,0.05718114082047335,0.042344030182353595,0,200807,-0.77,3.72,5.42,-1.37,1.08,0.15
2008-08,0.027386467779287906,0.010189581947541933,0.023780118029560128,0.02632978497272648,0.03562219180131124,0.008235724022023331,0,200808,1.53,3.46,1.59,1.86,0.84,0.13
2008-09,-0.0749320849520732,-0.08811005565005288,-0.05365598331218383,-0.049038157643970876,-0.033565718358735806,0.04136636659333739,0,200809,-9.24,0.25,5.92,2.41,1.78,0.15
2008-10,-0.1275072510072535,-0.1533160544008728,-0.16394288975351456,-0.2733812022012688,-0.2071829750939759,-0.07967572408672241,0,200810,-17.23,-3.34,-2.3,3.04,2.05,0.08
2008-11,-0.040367556364979185,-0.059331177658179676,-0.09068640515325196,-0.16004256860945426,-0.20471612199279918,-0.16434856562782,0,200811,-7.86,-3.89,-6.31,4.53,2.74,0.03
2008-12,0.02339677600234048,0.01948004033081667,0.04862764528322029,0.07764808752204948,0.058791329901113173,0.03539455389877269,0,200812,1.74,3.29,0.15,0.06,-1.49,0.0
2009-01,-0.05181484926566305,-0.07786742833586087,-0.07066575540126499,-0.12786015261987982,-0.11679245655007603,-0.06497760728441299,0,200901,-8.12,-2.13,-11.29,0.18,-1.16,0.0
2009-02,-0.08454492546420568,-0.09067796522276639,-0.08836668499145055,-0.11223290514541898,-0.21136809077569085,-0.1268231653114852,0,200902,-10.1,-1.33,-6.95,1.19,-1.02,0.01
2009-03,0.0994305196020357,0.0745152375735347,0.09411809924761366,0.14669123154549896,0.4355325448731692,0.33610202527113353,0,200903,8.95,0.68,3.48,-2.52,-2.24,0.02
2009-04,0.09296264901901366,0.06950014209898232,0.16325607855914825,0.359089437975197,0.4702666157400615,0.3773039667210478,0,200904,10.18,7.13,5.36,1.31,0.13,0.01
2009-05,0.038120457090455556,0.04881153293463368,0.07095040510020338,0.14424054674408052,0.22138456879929483,0.18326411170883927,0,200905,5.21,-2.32,0.27,-0.78,-2.16,0.0
2009-06,0.020127806854503334,0.0012110298307283645,-0.012949301530735778,0.002763351622941042,0.08844974459954653,0.06832193774504319,0,200906,0.43,2.29,-2.73,-1.41,-0.33,0.01
2009-07,0.0778467811958008,0.07468297056481786,0.09943114797510103,0.1230206179597988,0.22523464829854217,0.14738786710274138,0,200907,7.72,2.39,4.84,-0.46,3.14,0.01
2009-08,0.02471856839430203,0.027182619669763326,0.05754962283020551,0.09054456028197157,0.30900991573580966,0.2842913473415076,0,200908,3.33,-0.09,7.63,-3.02,3.34,0.01
2009-09,0.0359511147885607,0.0421421034306573,0.06268495420570583,0.06097615481071301,0.043195358827629045,0.007244244039068343,0,200909,4.08,2.73,1.04,1.31,0.35,0.01
2009-10,-0.009728866760825636,-0.009689901988485593,-0.02240751266101989,-0.07486918577001431,-0.13858377644171652,-0.1288549096808909,0,200910,-2.59,-4.93,-4.2,4.17,-1.49,0.0
2009-11,0.06540239223003323,0.05689606350537817,0.06001717651772785,0.06359366285992475,0.06050219007989597,-0.004900202150137263,0,200911,5.56,-2.68,-0.34,1.0,0.12,0.0
2009-12,0.03876302678328391,0.01563405913860918,0.03753336028545493,0.059655520302399366,0.01248704790788386,-0.02627597887540005,0,200912,2.75,6.23,-0.17,1.02,-0.09,0.01
2010-01,-0.019144520231361574,-0.038785590106175306,-0.03799361286077913,-0.03549017256430429,0.03830173499954868,0.05744625523091025,0,201001,-3.36,0.34,0.43,-1.27,0.46,0.0
2010-02,0.028120790322210914,0.03417241410419821,0.04558550535267926,0.04913067322089658,0.0683982130062574,0.04027742268404648,0,201002,3.4,1.51,3.23,-0.27,1.43,0.0
2010-03,0.0618125867375693,0.06450772831860724,0.06889740933788446,0.06168408482512439,0.11445723137373058,0.05264464463616128,0,201003,6.31,1.85,2.21,-0.65,1.69,0.01
2010-04,0.025505937553956345,0.04939370898515532,0.0027618403181339703,0.03118730120767543,0.06546144188867423,0.03995550433471788,0,201004,2.0,4.98,2.89,0.69,1.72,0.01
2010-05,-0.07816622450430105,-0.0632795476773024,-0.07210680356810246,-0.08295036266981248,-0.09810223763531166,-0.019936013131010608,0,201005,-7.89,0.04,-2.44,1.3,-0.22,0.01
2010-06,-0.04111708770466793,-0.04426028808138442,-0.06415125902999631,-0.06772969120233394,-0.09279128835828178,-0.05167420065361385,0,201006,-5.57,-2.47,-4.7,-0.16,-1.55,0.01
2010-07,0.07910920784438596,0.07199207837828382,0.08167054009451594,0.05884068768972643,0.09170541091143178,0.012596203067045814,0,201007,6.93,0.14,-0.33,0.27,1.98,0.01
2010-08,-0.02725160301458896,-0.03895555310792891,-0.0539801110584755,-0.05742665701165671,-0.10027617720079704,-0.07302457418620809,0,201008,-4.77,-3.13,-1.93,0.58,-1.61,0.01
2010-09,0.10564033212942826,0.08695904816546729,0.11882750097196078,0.0880435752403409,0.12217923248725386,0.016538900357825598,0,201009,9.54,3.77,-3.18,-0.18,0.36,0.01
2010-10,0.03885202633682277,0.03905733184194274,0.05119753919536267,0.05197916869509068,0.027114359756291038,-0.011737666580531731,0,201010,3.88,0.86,-2.51,1.31,-0.33,0.01
2010-11,0.0020706420233392855,0.0164093195219287,0.018607949111100603,0.0030211935112273306,0.0011519575038674028,-0.0009186845194718827,0,201011,0.6,3.64,-0.92,0.38,1.63,0.01
2010-12,0.0720663034838923,0.06888597206333318,0.06429022330851088,0.08216532325900923,0.16772563100333598,0.09565932751944368,0,201012,6.82,0.99,3.76,-3.52,3.21,0.01
2011-01,0.027121240006974807,0.020592144381249566,0.02049765930813819,0.027175783256303182,0.029809035223998154,0.002687795217023347,0,201101,1.99,-2.38,0.75,-0.65,0.77,0.01
2011-02,0.03876932168763102,0.040498638334419856,0.044322884481655625,0.033199493355345465,0.040158257296055946,0.0013889356084249294,0,201102,3.49,1.65,1.27,-1.93,0.87,0.01
2011-03,0.001325940513159678,0.008185830348506628,0.015301760405631519,0.00615849838669836,-0.01737168498799643,-0.01869762550115611,0,201103,0.46,2.63,-1.85,1.8,-0.05,0.01
2011-04,0.0401768873127066,0.04570360122379001,0.03472647463700346,0.01684075672297293,0.0011456847006745788,-0.039031202612032016,0,201104,2.9,-0.5,-2.49,1.11,-0.86,0.0
2011-05,-0.011987334587999764,0.0036477477285601525,-0.006877545825011539,-0.023266273742621576,-0.027179816133017246,-0.015192481545017482,0,201105,-1.27,-0.71,-2.0,1.91,-1.5,0.0
2011-06,-0.009159565201461215,-0.018445413199566354,-0.013018499948870292,-0.013302851493814606,-0.05388233311636394,-0.04472276791490272,0,201106,-1.75,0.13,-0.39,2.43,-1.51,0.0
2011-07,-0.021991879155336017,-0.0317441126433499,-0.018596650766705837,0.023742018624937387,-0.06262994963482181,-0.0406380704794858,0,201107,-2.35,-1.2,-0.9,2.68,-1.82,0.0
2011-08,-0.03729059774420559,-0.04957600781274445,-0.06614287865556033,-0.0669877938502156,-0.14634638843497627,-0.10905579069077068,0,201108,-5.99,-3.2,-2.36,3.3,-0.38,0.01
2011-09,-0.051187586528314545,-0.0689833340803121,-0.08194214066901309,-0.06354878059242833,-0.16579963373877177,-0.11461204721045723,0,201109,-7.59,-3.65,-1.72,2.04,0.26,0.0
2011-10,0.12351189437228646,0.11297579409306806,0.13595105438517416,0.11236842618831731,0.15392516502064182,0.03041327064835536,0,201110,11.35,3.46,0.1,-2.16,-0.86,0.0
2011-11,0.0044041354523577485,0.008023542766410431,-0.000611362955123158,-0.0077208590260860336,-0.047870492464781866,-0.05227462791713962,0,201111,-0.28,-0.27,-0.45,1.86,1.49,0.0
2011-12,0.020335740081765048,0.011797227479863987,-0.0005982786850487551,0.013042869443692878,0.006713220685670799,-0.013622519396094247,0,201112,0.74,-0.33,1.63,0.98,2.51,0.0
2012-01,0.06040470682063603,0.03460509181790694,0.06710886888724134,0.07317010224477297,0.173372748406178,0.11296804158554197,0,201201,5.05,2.05,-0.97,-2.01,-1.43,0.0
2012-02,0.0383922815043188,0.0393954500217354,0.04194251699582227,0.07489581438357908,0.06395406980383309,0.025561788299514283,0,201202,4.42,-1.7,0.43,-0.48,-0.01,0.0
2012-03,0.020080162622128323,0.03464099942606354,0.046817111941967665,0.03004917422900665,0.027991656347117026,0.007911493724988703,0,201203,3.11,-0.47,1.14,-0.54,0.74,0.0
2012-04,-0.009192512473436647,0.01311534960731643,-0.0023461667074727664,-0.014628103434002698,-0.05750280042897766,-0.048310287955541015,0,201204,-0.85,-0.55,-0.78,1.3,0.65,0.0
2012-05,-0.06174517428143907,-0.03054857456818447,-0.0484423800534902,-0.0945121494692898,-0.06911325437936852,-0.007368080097929448,0,201205,-6.19,-0.12,-1.06,2.08,2.32,0.01
2012-06,0.05388354220198931,0.03831175743005556,0.03036239207105649,0.02925327536619463,0.083582553672673,0.029699011470683698,0,201206,3.89,0.84,0.62,-1.09,0.46,0.0
2012-07,0.012162660291840184,0.021485511557858366,-0.0005985601709967154,0.020221300738466987,-0.052243312943844114,-0.0644059732356843,0,201207,0.79,-2.8,-0.02,1.1,0.09,0.0
2012-08,0.027128176461805716,0.02206546713956158,0.026639960088783964,0.046666892474554994,0.05036019600203825,0.023232019540232532,0,201208,2.55,0.45,1.3,-1.33,-0.86,0.01
2012-09,0.03089716275188084,0.024688445935107942,0.03247605949713376,0.028770243741290842,0.05480533296023087,0.02390817020835003,0,201209,2.73,0.61,1.6,-1.49,1.54,0.01
2012-10,0.0029365331456950097,-0.010780351533802846,-0.013754663437829896,-0.04080218677909097,-0.027039642508830137,-0.029976175654525147,0,201210,-1.76,-0.9,3.59,-1.34,2.51,0.01
2012-11,0.00390445010891456,0.005216229699293475,0.022785232682880963,0.02042587619534898,0.023140521760212,0.01923607165129744,0,201211,0.78,0.47,-0.84,0.6,0.84,0.01
2012-12,0.022615485749965886,0.012204075389713694,0.009062764342992571,0.00788713010677983,0.05975834217963596,0.03714285642967007,0,201212,1.18,1.91,3.51,-1.85,0.88,0.01
2013-01,0.0655918098135974,0.05933821989814576,0.06943157101546067,0.04107587854782087,0.08595736186261099,0.020365552049013594,0,201301,5.57,0.47,0.96,-1.93,1.42,0.0
2013-02,0.01324772333133753,0.02018081127385435,0.017625295466035733,0.009487730226470242,0.008663986841421887,-0.0045837364899156425,0,201302,1.29,-0.25,0.11,-0.67,0.54,0.0
2013-03,0.039861113437029354,0.0380876019340236,0.04592873733331334,0.039073061788148164,0.07390513130365889,0.034044017866629535,0,201303,4.03,0.86,-0.19,0.14,1.37,0.0
2013-04,0.02776347525857246,0.020042606333230083,0.02248671712508844,0.006821725818608021,-0.007516359519911961,-0.035279834778484426,0,201304,1.55,-2.25,0.45,0.27,0.37,0.0
2013-05,0.040576137466306776,0.02112297699041606,0.026768322326070782,0.04035135154379155,0.07885809105763342,0.03828195359132664,0,201305,2.8,2.09,2.63,-1.97,-0.91,0.0
2013-06,-0.003442972849479309,-0.003973614724121852,-0.021114545995442012,-0.01746982546445004,0.005496811890666489,0.008939784740145798,0,201306,-1.2,1.56,0.03,-0.38,0.01,0.0
2013-07,0.051268352296795536,0.05688193792505444,0.06714314710631115,0.07636304149827118,0.09563950067279041,0.04437114837599487,0,201307,5.65,1.8,0.57,-1.35,0.52,0.0
2013-08,-0.03554349370103178,-0.031138423865199626,-0.02306620581931396,0.005484746810083286,-0.01922489978162594,0.016318593919405835,0,201308,-2.71,-0.06,-2.69,0.66,-2.16,0.0
2013-09,0.030246664831977774,0.03904333179491582,0.04999901458824005,0.04356555077867864,0.10317027106071251,0.07292360622873474,0,201309,3.77,2.66,-1.22,-0.58,-1.4,0.0
2013-10,0.04447250355625733,0.05268743302440305,0.028156659233239338,0.05866235563899806,0.02610878868927607,-0.018363714866981257,0,201310,4.18,-1.51,1.25,2.78,0.92,0.0
2013-11,0.039664291330823394,0.02924833440594506,0.0290880895890794,0.03731328657733206,0.09584940302971932,0.05618511169889593,0,201311,3.13,1.4,0.32,0.14,0.05,0.0
2013-12,0.026570672973559303,0.024760713691060553,0.031857947666144644,0.038007613305440606,0.06189626548898674,0.03532559251542744,0,201312,2.81,-0.44,-0.02,-0.46,0.08,0.0
2014-01,-0.0328490504529849,-0.03765275663094847,-0.033734112409439736,-0.0005033413406515761,0.017740402451433303,0.0505894529044182,0,201401,-3.32,0.58,-2.07,-3.88,-1.43,0.0
2014-02,0.04499061637189215,0.048615893741472606,0.05928701691785454,0.05331966979740239,0.045011944492864074,2.1328120971920994e-05,0,201402,4.65,0.16,-0.31,-0.23,-0.47,0.0
2014-03,0.02218157809221777,-0.00840655287836607,0.0073492900923293,0.004840354896336059,0.009181646560515134,-0.012999931531702634,0,201403,0.43,-1.13,4.93,2.13,1.98,0.0
2014-04,-0.002642081921367284,0.008713173637376294,0.001849416396603587,-0.0012603069671796696,-0.015401600997076473,-0.01275951907570919,0,201404,-0.19,-4.14,1.17,3.48,1.04,0.0
2014-05,0.025550680715558674,0.021443759967044933,0.025007788644313612,0.015344893383450298,0.01999096556374439,-0.005559715151814283,0,201405,2.06,-1.89,-0.13,0.05,-1.01,0.0
2014-06,0.022905121031566875,0.020211264231274905,0.03625593710610866,0.044587163912183994,0.09164418853489145,0.06873906750332458,0,201406,2.61,3.1,-0.7,-1.89,-1.98,0.0
2014-07,-0.008873298058106159,-0.018473503536641817,-0.017420263115580176,-0.020804262102528774,-0.09579254795170078,-0.08691924989359462,0,201407,-2.04,-4.29,0.03,0.88,0.51,0.0
2014-08,0.045452120704949354,0.03986033269406546,0.0461023418337708,0.051065266629847776,0.03660475138472164,-0.008847369320227713,0,201408,4.24,0.31,-0.45,-0.63,-0.69,0.0
2014-09,-0.011768364683611204,-0.015704073738965405,-0.026188206040735112,-0.017591973927469466,-0.05839490596086399,-0.046626541277252784,0,201409,-1.97,-3.73,-1.34,1.31,-0.49,0.0
2014-10,0.03797359852452403,0.031067947158369816,0.023018165791047283,0.0229328111171237,0.012635966774074614,-0.025337631750449417,0,201410,2.52,3.72,-1.81,-0.55,-0.09,0.0
2014-11,0.03811943021758911,0.033728436685427084,0.019786528566315346,0.022386229023241527,-0.010545888639090067,-0.04866531885667918,0,201411,2.55,-2.28,-3.09,1.5,0.26,0.0
2014-12,0.006589429303685715,0.0002887660616073689,0.00784243572156204,-0.01001509070756183,0.02940334762865667,0.022813918324970955,0,201412,-0.06,2.86,2.27,-1.22,0.96,0.0
2015-01,-0.034753576739791486,-0.031398238084924,-0.01796956933863418,-0.0075800569032115715,-0.021317693482533137,0.01343588325725835,0,201501,-3.11,-0.91,-3.58,1.6,-1.66,0.0
2015-02,0.06290416897296526,0.054862577413336035,0.06534065676920764,0.08389592017172805,0.08758854385585264,0.024684374882887383,0,201502,6.13,0.31,-1.86,-1.1,-1.79,0.0
2015-03,-0.010296574233155819,-0.0034844742916155264,-0.008000570867609266,-0.014665088489223162,-0.016311913134601553,-0.006015338901445734,0,201503,-1.12,3.07,-0.37,0.09,-0.51,0.0
2015-04,0.013255305713605468,0.0012879660170562357,0.0039725318872169905,0.023733004707686963,0.05985420378955145,0.04659889807594598,0,201504,0.59,-3.06,1.82,0.02,-0.65,0.0
2015-05,0.02194129044938526,0.020494572622997562,0.014100345974572123,0.006605517855412143,-0.017578551746672545,-0.03951984219605781,0,201505,1.36,0.82,-1.14,-1.78,-0.72,0.0
2015-06,-0.01905425205191414,-0.015228206086236184,-0.0015669872076393239,-0.00738309899148931,0.0033988631037230157,0.022453115155637155,0,201506,-1.53,2.89,-0.79,0.45,-1.57,0.0
2015-07,0.027394233127184718,0.012499235124612753,0.025398945071806442,0.021947577353057395,-0.0819178661154558,-0.10931209924264051,0,201507,1.54,-4.58,-4.13,0.31,-2.46,0.0
2015-08,-0.057973086765851944,-0.05883014927354251,-0.061779826755652065,-0.053981229950240586,0.029701299136797577,0.08767438590264952,0,201508,-6.04,0.24,2.77,0.69,1.24,0.0
2015-09,-0.023795700509135976,-0.019516902238943038,-0.0334492253591419,-0.02785137709112138,-0.13042514704234837,-0.1066294465332124,0,201509,-3.07,-2.8,0.56,1.8,-0.6,0.0
2015-10,0.08093742416064365,0.07632745314100559,0.07820748074731688,0.10839248378954441,0.10848739958943952,0.027549975428795878,0,201510,7.75,-2.05,-0.46,0.86,0.55,0.0
2015-11,0.009379613487143992,0.002485933021256693,0.01189020135843969,0.01914936249338632,0.01891841523026118,0.009538801743117187,0,201511,0.56,3.29,-0.42,-2.71,-1.03,0.0
2015-12,-0.017577798648021337,-0.009414756630869749,-0.017036552575794856,-0.038848401471724164,-0.04237574382534857,-0.02479794517732723,0,201512,-2.17,-2.97,-2.61,0.45,0.03,0.01
2016-01,-0.039451567881163094,-0.033185547086829324,-0.056179278675881496,-0.09053025674683897,-0.1564748718848612,-0.1170233040036981,0,201601,-5.77,-3.48,2.09,2.8,3.07,0.01
2016-02,0.02104741421660586,0.009711926846637122,-0.011301927619483258,-0.010083960565895765,0.07340300835096689,0.05235559413436103,0,201602,-0.07,0.85,-0.57,3.28,1.99,0.02
2016-03,0.07963122698638252,0.06182662037792947,0.07386566804908852,0.07970095494437068,0.19422731739739618,0.11459609041101367,0,201603,6.96,1.08,1.19,0.76,-0.04,0.02
2016-04,-0.028513605196631195,0.013282251290663443,0.02450807218614648,0.04552502913160559,0.13234560611518525,0.16085921131181646,0,201604,0.91,1.22,3.28,-2.92,1.86,0.01
2016-05,0.03650928720842071,0.016062992503427728,0.022756985625655292,0.00951821423607256,-0.018386526612648512,-0.05489581382106923,0,201605,1.78,-0.62,-1.66,-1.07,-2.49,0.01
2016-06,-0.0033937610818955697,0.01748399023858404,-0.007362608636934883,0.012210255701808725,0.009992260518122463,0.013386021600018033,0,201606,-0.05,0.44,-1.48,1.39,1.91,0.02
2016-07,0.05504035026044863,0.029848927911963856,0.042520540511914805,0.04588349748912694,0.11395329216283288,0.058912941902384254,0,201607,3.95,2.49,-1.27,1.25,-1.19,0.02
2016-08,0.02122286840126047,-0.0010569828234333804,-0.0008427651280019572,0.017829309827431975,0.044706808558337315,0.023483940157076843,0,201608,0.49,1.7,3.13,-1.88,-0.34,0.02
2016-09,0.0009995392672827968,-0.0024324923397930683,0.002497076793651383,0.029506294565905943,0.1071398787764673,0.1061403395091845,0,201609,0.25,1.86,-1.23,-2.23,0.03,0.02
2016-10,-0.00629633521759698,-0.015148401553815376,-0.01766138762540557,-0.034716794957666657,-0.0936424287540171,-0.08734609353642012,0,201610,-2.02,-4.04,4.12,0.96,0.28,0.02
2016-11,0.0805454561193154,0.044649136535359,0.03980342179416382,0.05329487249241628,0.14333391348702182,0.06278845736770641,0,201611,4.86,7.04,8.19,-0.21,3.69,0.01
2016-12,0.028968003669421344,0.021527871500736793,0.01409235020680266,0.013815339264914865,-0.011788232783184178,-0.040756236452605524,0,201612,1.81,0.39,3.56,1.23,-0.22,0.03
2017-01,0.01653133049619684,0.02074723029352083,0.023705686995618105,0.03775876381035553,0.07152968710944484,0.05499835661324799,0,201701,1.94,-1.43,-2.76,-0.5,-0.99,0.04
2017-02,0.03974027844333963,0.0446137859033903,0.028057390872523638,0.04191724988982068,0.056354331551709366,0.016614053108369733,0,201702,3.57,-2.21,-1.68,0.45,-1.83,0.04
2017-03,0.017336263350797326,0.010313832116965132,-0.004530063605341176,-0.0015489457570635502,0.032693292868577126,0.0153570295177798,0,201703,0.17,0.74,-3.32,0.62,-0.94,0.03
2017-04,0.01351395523793232,0.02249167108788897,0.011857901765248733,-0.0031926940865869215,-0.026220063164312503,-0.039734018402244824,0,201704,1.09,0.47,-2.1,1.91,-1.6,0.05
2017-05,0.013492723705374998,0.02832099362352843,0.014602929478150218,-0.0005375192448253982,-0.002964037036293164,-0.016456760741668162,0,201705,1.06,-3.03,-3.78,0.95,-1.81,0.06
2017-06,0.03242766480383588,0.005497369232449123,-0.0016400071382697003,-0.005443848436092142,0.12997370198257885,0.09754603717874297,0,201706,0.78,2.57,1.48,-2.25,0.01,0.06
2017-07,0.01911566673561944,0.01742640244575828,0.027973684807005874,0.03685456089583653,0.01648805945068902,-0.00262760728493042,0,201707,1.87,-1.66,-0.24,-0.69,-0.11,0.07
2017-08,0.00911481458524726,0.004694038611230507,0.0078122839126790414,-0.007038841904082691,0.016142718384095252,0.007027903798847993,0,201708,0.16,-1.83,-2.09,0.15,-2.37,0.09
2017-09,0.043647113527301246,0.017998113604412627,0.023448008755687165,0.03740482973034079,0.14907022902965594,0.1054231155023547,0,201709,2.51,4.77,3.12,-1.46,1.67,0.09
2017-10,0.02523922880542778,0.02061432834523333,0.03886427264673332,0.03755316860359526,-0.02025652974589005,-0.04549575855131783,0,201710,2.25,-1.93,0.21,0.92,-3.24,0.09
2017-11,0.0411020183554191,0.04403796661675035,0.022450895382173482,0.030645615003671366,0.04249368338417366,0.0013916650287545615,0,201711,3.12,-0.36,-0.08,3.19,-0.08,0.08
2017-12,0.017510667894763937,0.010554385313539983,0.012205724714046788,0.015558115464065374,0.027173575392880414,0.009662907498116477,0,201712,1.06,-1.07,0.05,0.75,1.67,0.09
2018-01,0.05026012619610417,0.056278666965784346,0.05940995537420801,0.09227089449902878,0.07463957421258521,0.024379448016481044,0,201801,5.57,-3.2,-1.33,-0.73,-1.01,0.12
2018-02,-0.040916070119966765,-0.042959716562940696,-0.01959663819741805,-0.01813009780184803,-0.03701992970629243,0.003896140413674337,0,201802,-3.65,0.31,-1.07,0.54,-2.39,0.11
2018-03,-0.02097230150633487,-0.0032050903621344885,-0.024239570480066818,-0.031686953080351285,0.012350842146912273,0.03332314365324714,0,201803,-2.35,3.58,-0.23,-0.45,0.0,0.11
2018-04,0.012649289870639202,0.0024474431261465182,0.006792737223363381,0.011916003993570587,0.04234214180721889,0.029692851936579688,0,201804,0.28,0.93,0.54,-2.43,1.27,0.14
2018-05,0.0356503598658274,0.025531308950433405,0.03206119987436217,0.03819901644437266,0.05637831271441321,0.020727952848585807,0,201805,2.65,4.74,-3.18,-2.05,-1.47,0.14
2018-06,0.0038779030106109165,0.0008103741002564111,0.011544861952588371,0.037088630176710075,0.011995479580367329,0.008117576569756412,0,201806,0.48,0.81,-2.33,0.78,0.24,0.14
2018-07,0.054958686701764646,0.03915247325848193,0.017028853598955056,0.02184413968460185,0.011878465735476946,-0.0430802209662877,0,201807,3.19,-1.93,0.47,1.56,0.35,0.16
2018-08,0.022999797178720527,0.04334512666884645,0.04414026002647183,0.08251664024411995,0.06981466706309819,0.04681486988437766,0,201808,3.44,0.63,-3.98,-0.3,-2.66,0.16
2018-09,0.0019275606782158503,0.006223662327709947,0.012266430351330258,-0.005181227646979068,-0.01508712665127973,-0.01701468732949558,0,201809,0.06,-2.49,-1.69,0.64,1.3,0.15
2018-10,-0.03881926032936078,-0.050951232820470864,-0.09031216767108627,-0.11841821992001594,-0.15880327512368758,-0.1199840147943268,0,201810,-7.68,-4.46,3.44,0.94,3.6,0.19
2018-11,0.03969907238090637,0.015428536574524596,0.022966018264259463,0.02966022615890729,0.037757376434418816,-0.0019416959464875552,0,201811,1.69,-0.77,0.28,-0.56,0.36,0.18
2018-12,-0.10513454162367561,-0.0852713961439085,-0.07814621389591213,-0.10449893743672092,-0.1701432996417701,-0.0650087580180945,0,201812,-9.57,-2.87,-1.85,-0.03,0.22,0.2
2019-01,0.10897073419822234,0.06996790309494108,0.09535668267567608,0.11072373872327639,0.23064279465848814,0.1216720604602658,0,201901,8.4,3.02,-0.46,-0.78,-1.51,0.21
2019-02,0.03594415898871776,0.04620236119384406,0.05085781801721438,0.026762143471828134,0.1299057473496017,0.09396158836088395,0,201902,3.4,1.74,-2.67,0.12,-1.6,0.18
2019-03,0.034015078928096965,0.017363746021466064,0.015895433908413654,-0.009530676331270851,0.029301465382982967,-0.0047136135451139975,0,201903,1.1,-3.5,-4.1,0.9,-0.96,0.19
2019-04,0.06869173646596058,0.0312369978941849,0.05503513717976821,0.03045034314367555,0.021939227351255475,-0.046752509114705104,0,201904,3.97,-1.17,2.14,1.62,-2.2,0.21
2019-05,-0.07023518059731823,-0.04396584319228764,-0.06168422540752707,-0.08612508715234397,-0.1599927263514626,-0.08975754575414438,0,201905,-6.94,-1.58,-2.35,-0.47,1.76,0.21
2019-06,0.07755523726822762,0.07598070026627624,0.07371588767296947,0.07891424459807063,0.10042880471684151,0.022873567448613893,0,201906,6.93,0.36,-0.72,0.91,-0.43,0.18
2019-07,0.024069672342365893,0.01896697689162777,0.012470826343613725,0.0008876141184928169,-0.03246818913928712,-0.05653786148165301,0,201907,1.19,-1.78,0.47,-0.07,0.37,0.19
2019-08,-0.03315090672069063,-0.006950773486874952,-0.012710137669922876,-0.039430960261096486,-0.03199128301959842,0.0011596237010922106,0,201908,-2.58,-3.23,-4.77,0.55,-0.69,0.16
2019-09,0.059220025347662,0.018710145613028452,-0.0027472177219159655,0.01800279763713792,0.05908227168116616,-0.00013775366649584203,0,201909,1.43,0.27,6.74,1.84,3.36,0.18
2019-10,0.03677410495813832,0.02692132069646302,0.019354418848957656,0.024950900118947354,0.036596000873575854,-0.00017810408456246651,0,201910,2.06,0.27,-1.92,0.44,-0.96,0.16
2019-11,0.05285295741567564,0.034968775012090815,0.04275813209393626,0.07506864142208845,0.159447798942555,0.10659484152687937,0,201911,3.87,0.45,-2.0,-1.6,-1.25,0.12
2019-12,0.031142225919974613,0.029206530232547812,0.025398757849082427,0.05449815322656696,0.20334623040579186,0.17220400448581724,0,201912,2.77,0.97,1.77,0.0,1.23,0.14
2020-01,-0.03706451881692855,-0.005973044289791864,0.03635036481565364,0.03403137704143361,-0.018393977447890782,0.018670541369037768,0,202001,-0.11,-4.38,-6.23,-1.17,-2.32,0.13
2020-02,-0.08666018845888904,-0.08057014517191623,-0.05781818714766983,-0.09341758475021467,-0.08258791328459106,0.004072275174297979,0,202002,-8.13,0.04,-3.79,-1.47,-2.51,0.12
2020-03,-0.09376177703297424,-0.07219340178831976,-0.12409652040876835,-0.28379084496361756,-0.2934583035157632,-0.19969652648278896,0,202003,-13.39,-8.3,-13.95,-1.52,1.26,0.13
2020-04,0.13291551238269583,0.14997688108050505,0.12309073628873901,0.19070523829494795,0.2627774287568,0.12986191637410416,0,202004,13.65,2.58,-1.26,2.71,-1.01,0.0
2020-05,0.04967219089971745,0.07634959455159553,0.05527588741429775,0.054844182354162455,0.09337046076085588,0.04369826986113843,0,202005,5.58,1.97,-4.89,0.96,-3.25,0.01
2020-06,0.005785045449586812,-0.0002788128545173934,0.061349938234479456,0.058941748401610476,0.2282900049064451,0.2225049594568583,0,202006,2.46,1.97,-2.17,0.09,0.53,0.01
2020-07,0.02087630983094594,0.05909923541320229,0.09207664163481154,-0.0032557538135396754,0.0906588170753048,0.06978250724435886,0,202007,5.77,-3.2,-1.37,0.4,0.96,0.01
2020-08,0.05316241240826579,0.04602319962715282,0.12003441242905659,0.07263327043351596,0.23170655127821257,0.1785441388699468,0,202008,7.63,-0.89,-2.96,4.26,-1.2,0.01
2020-09,-0.0316369197037008,-0.00999614219054053,-0.03507252537744102,-0.0643790608349756,-0.032869234016530684,-0.0012323143128298852,0,202009,-3.63,0.01,-2.68,-1.39,-1.89,0.01
2020-10,0.009958540085161718,-0.025453117204401545,-0.022170439400792052,0.0163578896140912,0.018881694583822748,0.00892315449866103,0,202010,-2.1,4.64,4.22,-0.75,-0.76,0.01
2020-11,0.16663613578785244,0.11286851728655263,0.11617937845258977,0.29246990065728296,0.5213297554348668,0.3546936196470144,0,202011,12.47,7.12,2.13,-2.2,1.37,0.01
2020-12,0.058118340424825485,0.03914268384559347,0.05070264938441081,0.09823269402240997,0.2026741627822143,0.14455582235738884,0,202012,4.63,4.79,-1.5,-1.99,-0.11,0.01
2021-01,0.02224847039355435,-0.008500056587981392,0.0005392167767052838,0.12787965862152953,0.3313158511551179,0.30906738076156354,0,202101,-0.03,6.92,2.97,-3.81,4.9,0.01
2021-02,0.08664728058491479,0.029384195947890816,0.014961252177974891,0.091416156974514,0.2621114676295599,0.17546418704464511,0,202102,2.78,4.53,7.17,0.31,-1.94,0.0
2021-03,0.09195528756531371,0.03062963753502045,-0.03618513606104665,-0.016523810376818094,0.013302906560354124,-0.07865238100495958,0,202103,3.08,-0.86,7.39,6.47,3.41,0.0
2021-04,0.031228161631423966,0.052736535486520256,0.03423420712942717,-0.006867691233651319,-0.016010924295870466,-0.047239085927294436,0,202104,4.93,-3.15,-0.95,2.49,-2.69,0.0
2021-05,0.04166819153077338,-0.0069003482472777865,0.009042667361566116,-0.011010415379940377,0.008376641711744416,-0.03329154981902896,0,202105,0.29,1.23,7.09,2.53,3.01,0.0
2021-06,-0.015393758153623508,-0.011045208116621623,0.040940752842052744,0.06957761754265841,0.10248307483973654,0.11787683299336005,0,202106,2.75,-0.34,-7.83,-2.18,-0.95,0.0
2021-07,0.0015287577985164229,0.008039151089304522,0.039452086847357584,-0.004632555567953402,-0.11444174224954236,-0.11597050004805878,0,202107,1.27,-4.63,-1.78,5.5,-0.52,0.0
2021-08,0.02564718394373105,0.026696926465011303,0.03235856872124738,0.05145794409183523,0.07919364178897796,0.05354645784524691,0,202108,2.91,-0.68,-0.15,-0.3,-1.79,0.0
2021-09,-0.021423852694376768,-0.023069779902354814,-0.05115132017154671,-0.033128219645515926,0.009436642484879751,0.03086049517925652,0,202109,-4.37,1.13,5.09,-1.9,2.11,0.0
2021-10,0.038015047406900225,0.07665265944499686,0.0825673701169497,0.04174798681614685,0.0015979638326271638,-0.03641708357427306,0,202110,6.65,-2.7,-0.49,1.69,-1.45,0.0
2021-11,-0.006377867230895212,-0.025687188310600812,0.0111766532678486,-0.07256523539996777,-0.07585074389357742,-0.0694728766626822,0,202111,-1.55,-1.77,-0.45,7.22,1.72,0.0
2021-12,0.07032285833420257,0.06847740844705287,0.041512823457545325,-0.02782774106018755,-0.020732228293067177,-0.09105508662726974,0,202112,3.1,-0.77,3.26,4.92,4.4,0.01
